<?xml version="1.0"?>
<opencv_storage>
<my_nb type_id="opencv-ml-bayesian">
  <var_count>5</var_count>
  <var_all>5</var_all>
  <cls_labels type_id="opencv-matrix">
    <rows>1</rows>
    <cols>2</cols>
    <dt>i</dt>
    <data>
      0 1</data></cls_labels>
  <count>
    <_ type_id="opencv-matrix">
      <rows>1</rows>
      <cols>5</cols>
      <dt>i</dt>
      <data>
        9182 9182 9182 9182 9182</data></_>
    <_ type_id="opencv-matrix">
      <rows>1</rows>
      <cols>5</cols>
      <dt>i</dt>
      <data>
        4560 4560 4560 4560 4560</data></_></count>
  <sum>
    <_ type_id="opencv-matrix">
      <rows>1</rows>
      <cols>5</cols>
      <dt>d</dt>
      <data>
        4.4745361180305481e+04 4.7863129123687744e+05
        -4.5055105857570779e+04 6.1358793940080795e+03
        -3.9406379194941183e+04</data></_>
    <_ type_id="opencv-matrix">
      <rows>1</rows>
      <cols>5</cols>
      <dt>d</dt>
      <data>
        2.2018106401443481e+04 2.4032021667098999e+05
        1.1353440989665687e+03 8.2685106495430227e+02
        -1.3004653396105394e+04</data></_></sum>
  <productsum>
    <_ type_id="opencv-matrix">
      <rows>5</rows>
      <cols>5</cols>
      <dt>d</dt>
      <data>
        2.1806390646326263e+05 2.3322166008122684e+06
        -2.1892166489024175e+05 3.0006525779146752e+04
        -1.9154829475602356e+05 2.3322166008122684e+06
        2.5042405092613701e+07 -2.3090976898474754e+06
        3.1907551564162358e+05 -2.0160479891692067e+06
        -2.1892166489024175e+05 -2.3090976898474754e+06
        7.4490979722214453e+06 -3.2761611080774030e+04
        7.2933177259828728e+06 3.0006525779146752e+04
        3.1907551564162358e+05 -3.2761611080774030e+04
        5.4041345209106466e+03 -3.1754846771853023e+04
        -1.9154829475602356e+05 -2.0160479891692067e+06
        7.2933177259828728e+06 -3.1754846771853023e+04
        1.5272804395752901e+07</data></_>
    <_ type_id="opencv-matrix">
      <rows>5</rows>
      <cols>5</cols>
      <dt>d</dt>
      <data>
        1.0631774917950011e+05 1.1603085719402297e+06
        5.8673871737038680e+03 3.9977191855281953e+03
        -6.2175584286760568e+04 1.1603085719402297e+06
        1.2736242889880946e+07 5.0982828121298124e+04
        4.4244624032391752e+04 -6.7886797116810619e+05
        5.8673871737038680e+03 5.0982828121298124e+04
        4.4880181085292706e+06 -5.1641786790331855e+02
        2.2113699296772918e+06 3.9977191855281953e+03
        4.4244624032391752e+04 -5.1641786790331855e+02
        2.4341024577254615e+02 -1.9610304601997268e+03
        -6.2175584286760568e+04 -6.7886797116810619e+05
        2.2113699296772918e+06 -1.9610304601997268e+03
        2.2854932966269750e+07</data></_></productsum>
  <avg>
    <_ type_id="opencv-matrix">
      <rows>1</rows>
      <cols>5</cols>
      <dt>d</dt>
      <data>
        4.8731606600202007e+00 5.2127128211378505e+01
        -4.9068945608332371e+00 6.6825085972642995e-01
        -4.2916988885799592e+00</data></_>
    <_ type_id="opencv-matrix">
      <rows>1</rows>
      <cols>5</cols>
      <dt>d</dt>
      <data>
        4.8285321055797112e+00 5.2701801901532896e+01
        2.4897896907161596e-01 1.8132698792857507e-01
        -2.8518976745845164e+00</data></_></avg>
  <inv_eigen_values>
    <_ type_id="opencv-matrix">
      <rows>1</rows>
      <cols>5</cols>
      <dt>d</dt>
      <data>
        4.7607298088621569e-04 3.0130645240349146e-03
        9.9234232262594396e-02 7.0410382587912990e+00
        2.5480469934123121e+03</data></_>
    <_ type_id="opencv-matrix">
      <rows>1</rows>
      <cols>5</cols>
      <dt>d</dt>
      <data>
        1.9751650598317264e-04 1.0793116134381060e-03
        6.4285933607597212e-02 5.2099831156346319e+01
        2.2379374042945842e+03</data></_></inv_eigen_values>
  <cov_rotate_mats>
    <_ type_id="opencv-matrix">
      <rows>5</rows>
      <cols>5</cols>
      <dt>d</dt>
      <data>
        3.8467014931843654e-05 2.7545760568072650e-03
        5.0743346965157876e-01 -3.1219475290770229e-04
        8.6168647850760238e-01 -9.9537145056919824e-05
        -4.9764071846174571e-03 -8.6167217239855187e-01
        -1.5129982965338763e-04 5.0744090285097398e-01
        -2.5403917302203030e-03 9.9994623243305214e-01
        -5.6856390205508017e-03 -8.2903581878613006e-03
        1.4873750904435500e-04 -7.9959799157876571e-02
        -8.4668847328278948e-03 2.8604594117182398e-05
        -9.9676206835760350e-01 -3.4734248569033419e-04
        9.9679484626533599e-01 1.8686326941844396e-03
        -1.1782200927081301e-04 -7.9978301353472669e-02
        -1.0065132032799681e-05</data></_>
    <_ type_id="opencv-matrix">
      <rows>5</rows>
      <cols>5</cols>
      <dt>d</dt>
      <data>
        2.8551725829970283e-05 2.3502940816686710e-04
        1.1826810271808301e-01 1.3387816133717496e-05
        9.9298167135461646e-01 -7.3334980923363234e-05
        2.3015954454022611e-03 -9.9297911421803287e-01
        1.8128107689236250e-04 1.1826725305141816e-01
        -1.1943666594358842e-03 9.9995236353184092e-01
        2.2593137348233226e-03 9.4065805314535126e-03
        -5.0586512106951290e-04 -7.1397184615870898e-02
        9.2976935643977535e-03 -1.5153162065514154e-04
        -9.9740461748419751e-01 3.1347716910466047e-05
        9.9744724638648929e-01 1.8630569101681096e-03
        -8.4533137210168410e-05 -7.1382856638302378e-02
        -1.8090443837428674e-05</data></_></cov_rotate_mats>
  <c type_id="opencv-matrix">
    <rows>1</rows>
    <cols>2</cols>
    <dt>d</dt>
    <data>
      5.9701711400590627e+00 6.4390630451657636e+00</data></c></my_nb>
</opencv_storage>
