<?xml version="1.0"?>
<opencv_storage>
<my_svm type_id="opencv-ml-svm">
  <svm_type>C_SVC</svm_type>
  <kernel><type>RBF</type>
    <gamma>5.0625000000000009e-01</gamma></kernel>
  <C>1.0000000000000001e-01</C>
  <term_criteria><epsilon>1.1920928955078125e-07</epsilon>
    <iterations>1000</iterations></term_criteria>
  <var_all>5</var_all>
  <var_count>5</var_count>
  <class_count>2</class_count>
  <class_labels type_id="opencv-matrix">
    <rows>1</rows>
    <cols>2</cols>
    <dt>i</dt>
    <data>
      0 1</data></class_labels>
  <sv_total>2000</sv_total>
  <support_vectors>
    <_>
      4.89128304e+00 5.13116684e+01 9.43431015e+01 6.86508000e-01
      9.44542236e+01</_>
    <_>
      4.85265017e+00 5.13157463e+01 8.94295120e+01 3.36991012e-01
      8.76681900e+01</_>
    <_>
      4.83564281e+00 5.13102074e+01 7.34243774e+01 3.64188999e-01
      6.26536026e+01</_>
    <_>
      4.86594486e+00 5.14972534e+01 7.11045074e+01 6.26568019e-01
      4.68330498e+01</_>
    <_>
      4.89684486e+00 5.13118591e+01 1.09699806e+02 3.87015015e-01
      1.10043808e+02</_>
    <_>
      4.84964991e+00 5.13105583e+01 6.07651215e+01 3.20452988e-01
      6.14461060e+01</_>
    <_>
      4.86425686e+00 5.13110085e+01 6.28696442e+01 1.43404007e-01
      6.72728424e+01</_>
    <_>
      4.85841417e+00 5.13108139e+01 9.16503677e+01 3.07283014e-01
      9.15832367e+01</_>
    <_>
      4.83369303e+00 5.13101616e+01 9.88872986e+01 2.32081994e-01
      9.78029556e+01</_>
    <_>
      4.88101816e+00 5.13114471e+01 6.13786545e+01 3.26539010e-01
      6.21703033e+01</_>
    <_>
      4.85645199e+00 5.13107758e+01 6.16528587e+01 1.54318005e-01
      6.66869888e+01</_>
    <_>
      4.85437107e+00 5.13107109e+01 6.17062759e+01 1.51897997e-01
      6.72200317e+01</_>
    <_>
      4.80873919e+00 5.13094788e+01 9.86221085e+01 2.48411000e-01
      9.41911697e+01</_>
    <_>
      4.87792110e+00 5.13113289e+01 4.47818794e+01 3.25679004e-01
      4.52067528e+01</_>
    <_>
      4.82803297e+00 5.33459854e+01 6.15834312e+01 4.89275992e-01
      3.77766418e+01</_>
    <_>
      4.88611412e+00 5.13115807e+01 5.67506180e+01 2.88717002e-01
      5.73843193e+01</_>
    <_>
      4.84333992e+00 5.16273575e+01 7.11147232e+01 4.41877991e-01
      5.19773369e+01</_>
    <_>
      4.82862711e+00 5.13100090e+01 1.14327271e+02 2.56107986e-01
      1.15730408e+02</_>
    <_>
      4.86084986e+00 5.13109398e+01 4.79469833e+01 7.99899995e-02
      5.53449821e+01</_>
    <_>
      4.89254284e+00 5.13117218e+01 7.28752899e+01 3.91081005e-01
      7.27714615e+01</_>
    <_>
      4.87376404e+00 5.28830910e+01 7.35523758e+01 7.80399024e-01
      5.14315643e+01</_>
    <_>
      4.84527397e+00 5.13104477e+01 1.12140450e+02 3.67390007e-01
      1.12817024e+02</_>
    <_>
      4.87902117e+00 5.13113594e+01 6.14002457e+01 3.80362988e-01
      6.22443085e+01</_>
    <_>
      4.86701012e+00 5.13110542e+01 4.53289566e+01 2.71753013e-01
      4.51769638e+01</_>
    <_>
      4.85151911e+00 5.13106346e+01 8.30351639e+01 3.13695997e-01
      8.46074219e+01</_>
    <_>
      4.88269281e+00 5.13114624e+01 6.51694031e+01 5.52075982e-01
      6.51921844e+01</_>
    <_>
      4.86760283e+00 5.13110771e+01 6.28703079e+01 3.48228991e-01
      6.27905006e+01</_>
    <_>
      4.86506701e+00 5.13109741e+01 1.01429749e+02 3.58244985e-01
      1.01756744e+02</_>
    <_>
      4.84062386e+00 5.13102875e+01 1.16248589e+02 5.04966974e-01
      1.18948929e+02</_>
    <_>
      4.83740377e+00 5.13102646e+01 9.49070663e+01 2.22142994e-01
      9.70339355e+01</_>
    <_>
      4.83478594e+00 5.13101616e+01 1.01675583e+02 3.16148996e-01
      1.01874565e+02</_>
    <_>
      4.85606909e+00 5.13107224e+01 9.46986771e+01 3.15021992e-01
      9.69465714e+01</_>
    <_>
      4.86911011e+00 5.18508759e+01 7.23108292e+01 5.95903993e-01
      4.45006218e+01</_>
    <_>
      4.83830404e+00 5.13102760e+01 1.14119339e+02 2.72201985e-01
      1.15225784e+02</_>
    <_>
      4.86478806e+00 5.13109856e+01 9.16537476e+01 3.58269006e-01
      9.16122437e+01</_>
    <_>
      4.83535004e+00 5.13101845e+01 1.14165253e+02 2.85355985e-01
      1.15272438e+02</_>
    <_>
      4.88921118e+00 5.13116608e+01 6.13448486e+01 4.93452996e-01
      6.16189194e+01</_>
    <_>
      4.86288881e+00 5.13109436e+01 7.82943039e+01 2.90170997e-01
      7.91551132e+01</_>
    <_>
      4.87650919e+00 5.13114738e+01 9.92129745e+01 2.48150006e-01
      9.89702606e+01</_>
    <_>
      4.86778212e+00 5.13110809e+01 1.11223480e+02 1.59339994e-01
      1.16026009e+02</_>
    <_>
      4.86032486e+00 5.13108444e+01 7.55577698e+01 3.58961999e-01
      7.67710114e+01</_>
    <_>
      4.87002087e+00 5.13111649e+01 6.28716698e+01 3.46343994e-01
      6.27960968e+01</_>
    <_>
      4.82472420e+00 5.13104668e+01 6.60782852e+01 2.00352997e-01
      3.58895302e+01</_>
    <_>
      4.82860899e+00 5.13100128e+01 8.03543930e+01 2.51691014e-01
      8.17391281e+01</_>
    <_>
      4.85361910e+00 6.04812126e+01 9.57908478e+01 4.85354990e-01
      1.03276978e+02</_>
    <_>
      4.81543398e+00 5.13820496e+01 8.98487244e+01 2.95587987e-01
      8.95871277e+01</_>
    <_>
      4.82798719e+00 5.20075188e+01 6.78403015e+01 4.01966989e-01
      4.87788353e+01</_>
    <_>
      4.81278181e+00 5.13146744e+01 8.98035889e+01 2.63880014e-01
      8.95008163e+01</_>
    <_>
      4.86954117e+00 5.13111115e+01 1.01418556e+02 3.37051988e-01
      1.01751602e+02</_>
    <_>
      4.90046787e+00 5.13119469e+01 9.98834305e+01 4.24950004e-01
      9.92492447e+01</_>
    <_>
      4.82564783e+00 5.13144188e+01 1.04116631e+02 4.36010003e-01
      9.97587891e+01</_>
    <_>
      4.83231878e+00 5.13100739e+01 7.25261078e+01 4.08035994e-01
      6.89864731e+01</_>
    <_>
      4.81076288e+00 5.13095322e+01 1.00085014e+02 2.47624993e-01
      9.94791336e+01</_>
    <_>
      4.85947895e+00 5.13108406e+01 1.11380775e+02 3.37644994e-01
      1.10716698e+02</_>
    <_>
      4.80623817e+00 5.13094673e+01 5.92128220e+01 2.16923997e-01
      4.71965408e+01</_>
    <_>
      4.86701202e+00 5.13110352e+01 8.44839935e+01 3.26631010e-01
      8.40196152e+01</_>
    <_>
      4.88147116e+00 5.13114548e+01 8.45243607e+01 3.31616998e-01
      8.42470627e+01</_>
    <_>
      4.84897995e+00 5.13105316e+01 7.29070511e+01 3.71547014e-01
      7.26656952e+01</_>
    <_>
      4.85495281e+00 5.13107529e+01 8.34856873e+01 1.91566005e-01
      8.44242249e+01</_>
    <_>
      4.84870100e+00 5.13105354e+01 7.57284393e+01 3.05391997e-01
      7.74498215e+01</_>
    <_>
      4.88595390e+00 5.13115578e+01 1.11057304e+02 2.82783985e-01
      1.12937813e+02</_>
    <_>
      4.83667994e+00 5.13102036e+01 1.04634666e+02 3.49454999e-01
      1.03990395e+02</_>
    <_>
      4.85633612e+00 5.13108597e+01 7.28326035e+01 1.20379999e-02
      8.03545837e+01</_>
    <_>
      4.88898993e+00 5.13116074e+01 7.36414719e+01 6.19143009e-01
      7.39766083e+01</_>
    <_>
      4.86446619e+00 5.13110046e+01 1.19822121e+02 2.10970998e-01
      1.20121216e+02</_>
    <_>
      4.83636284e+00 5.13102150e+01 1.09281967e+02 2.69470006e-01
      1.08926262e+02</_>
    <_>
      4.85552788e+00 5.13107185e+01 9.90974579e+01 3.38975996e-01
      9.81353149e+01</_>
    <_>
      4.87553787e+00 5.13112564e+01 1.10465317e+02 5.24537027e-01
      1.10785873e+02</_>
    <_>
      4.85023403e+00 5.13105774e+01 7.56962585e+01 3.05462986e-01
      7.73712997e+01</_>
    <_>
      4.93104887e+00 5.13125801e+01 9.01063995e+01 1.30285597e+00
      8.99120865e+01</_>
    <_>
      4.87490320e+00 5.13112526e+01 8.36297226e+01 4.04644996e-01
      8.19936676e+01</_>
    <_>
      4.84885693e+00 5.13105927e+01 1.01948486e+02 1.64743006e-01
      1.06516861e+02</_>
    <_>
      4.81893396e+00 5.13097649e+01 8.67353668e+01 2.08189994e-01
      8.52822723e+01</_>
    <_>
      4.84237385e+00 5.13103638e+01 1.03067795e+02 3.65437001e-01
      1.01825867e+02</_>
    <_>
      4.81231880e+00 5.22296638e+01 7.07828979e+01 2.71014005e-01
      4.83246040e+01</_>
    <_>
      4.81563902e+00 5.13096504e+01 8.58974762e+01 2.75178999e-01
      8.67903824e+01</_>
    <_>
      4.82438183e+00 5.17193413e+01 5.98885193e+01 3.29706997e-01
      3.19342079e+01</_>
    <_>
      4.84215403e+00 5.13103523e+01 8.61911392e+01 3.35399002e-01
      8.70248795e+01</_>
    <_>
      4.80842018e+00 5.13094711e+01 8.77112579e+01 2.82721013e-01
      9.03420868e+01</_>
    <_>
      4.89213896e+00 5.13117218e+01 8.61239243e+01 3.40384007e-01
      8.51110764e+01</_>
    <_>
      4.84023619e+00 5.13102913e+01 8.62316437e+01 3.67718011e-01
      8.70296249e+01</_>
    <_>
      4.85206604e+00 5.13106613e+01 8.78469009e+01 2.16406003e-01
      8.56261520e+01</_>
    <_>
      4.82759714e+00 5.13115463e+01 6.69970627e+01 2.59205997e-01
      4.37227554e+01</_>
    <_>
      4.84222698e+00 5.13103714e+01 8.18304138e+01 3.09563994e-01
      8.24341354e+01</_>
    <_>
      4.82986212e+00 5.13100204e+01 9.88086395e+01 3.25646996e-01
      9.80145264e+01</_>
    <_>
      4.81378317e+00 5.13243408e+01 8.98221664e+01 2.60807008e-01
      8.95175629e+01</_>
    <_>
      4.85533524e+00 5.13106842e+01 1.01860832e+02 4.35389012e-01
      1.03454193e+02</_>
    <_>
      4.83744287e+00 5.13102341e+01 8.18681335e+01 3.02080989e-01
      8.25004730e+01</_>
    <_>
      4.91814899e+00 5.13124504e+01 6.59971085e+01 4.79667991e-01
      6.61415863e+01</_>
    <_>
      4.83164883e+00 5.13101044e+01 7.80307083e+01 2.30985999e-01
      7.93939972e+01</_>
    <_>
      4.83836079e+00 5.14198112e+01 7.03223953e+01 2.46428996e-01
      3.84273071e+01</_>
    <_>
      4.83419180e+00 5.13101311e+01 1.14215111e+02 3.64255995e-01
      1.15116501e+02</_>
    <_>
      4.86078787e+00 5.13109741e+01 7.28219070e+01 1.08292997e-01
      7.33265991e+01</_>
    <_>
      4.85045719e+00 5.13106155e+01 5.03752670e+01 2.42990002e-01
      5.03982773e+01</_>
    <_>
      4.88774586e+00 5.13115730e+01 9.38964157e+01 6.67841017e-01
      9.41301117e+01</_>
    <_>
      4.88301516e+00 5.13114433e+01 8.89376984e+01 4.52100992e-01
      8.89765854e+01</_>
    <_>
      4.83803320e+00 5.13102417e+01 1.12269920e+02 3.76531005e-01
      1.12947693e+02</_>
    <_>
      4.89570093e+00 5.13118515e+01 5.92376556e+01 2.89209008e-01
      5.99877167e+01</_>
    <_>
      4.87191010e+00 5.13112259e+01 9.40314407e+01 1.74127996e-01
      9.18156357e+01</_>
    <_>
      4.86468077e+00 5.13108902e+01 1.03451073e+02 6.91165984e-01
      1.02914543e+02</_>
    <_>
      4.89244604e+00 5.13152466e+01 9.92270050e+01 1.78066000e-01
      9.90036926e+01</_>
    <_>
      4.86309385e+00 5.13109703e+01 5.06123047e+01 3.41331989e-01
      5.03106384e+01</_>
    <_>
      4.85899305e+00 5.13108368e+01 9.91324234e+01 2.82723010e-01
      9.80297928e+01</_>
    <_>
      4.84635496e+00 5.13104935e+01 7.55208969e+01 2.03020006e-01
      7.30549850e+01</_>
    <_>
      4.82961607e+00 5.13100166e+01 6.63134460e+01 3.74700993e-01
      5.35309143e+01</_>
    <_>
      4.81582880e+00 5.13097229e+01 6.37032280e+01 2.38564998e-01
      5.44431686e+01</_>
    <_>
      4.83692122e+00 5.13101959e+01 9.89057236e+01 3.89633000e-01
      9.82759476e+01</_>
    <_>
      4.85870886e+00 5.13108139e+01 6.85555801e+01 3.14520001e-01
      6.84506073e+01</_>
    <_>
      4.87102318e+00 5.23467331e+01 8.97140503e+01 5.74831009e-01
      8.89540634e+01</_>
    <_>
      4.81313181e+00 5.13182564e+01 8.98128891e+01 2.52184987e-01
      8.94969788e+01</_>
    <_>
      4.84046316e+00 5.13103485e+01 9.06144104e+01 2.18323007e-01
      9.14661255e+01</_>
    <_>
      4.88033724e+00 5.13114204e+01 6.19683495e+01 2.20289007e-01
      5.64241257e+01</_>
    <_>
      4.81749916e+00 5.13096848e+01 8.06581726e+01 3.68934989e-01
      8.21906204e+01</_>
    <_>
      4.88438988e+00 5.13115578e+01 9.75936661e+01 4.05176997e-01
      9.77828903e+01</_>
    <_>
      4.83506012e+00 5.13101807e+01 6.45691757e+01 2.61231005e-01
      6.28249321e+01</_>
    <_>
      4.85674715e+00 5.13107452e+01 6.20257607e+01 3.74592990e-01
      6.14391518e+01</_>
    <_>
      4.85466909e+00 5.13107681e+01 9.84421387e+01 7.13149980e-02
      1.05802704e+02</_>
    <_>
      4.83823395e+00 5.13102951e+01 9.06270905e+01 1.91081002e-01
      9.16161118e+01</_>
    <_>
      4.83660412e+00 5.13102112e+01 9.06540451e+01 3.00610989e-01
      9.12957916e+01</_>
    <_>
      4.85521984e+00 5.17202873e+01 1.06347244e+02 5.65319993e-02
      1.00334946e+02</_>
    <_>
      4.85465908e+00 5.13106651e+01 4.48930588e+01 4.04136986e-01
      4.60161743e+01</_>
    <_>
      4.86997700e+00 5.13110657e+01 1.10016846e+02 6.43796980e-01
      1.10705406e+02</_>
    <_>
      4.90641499e+00 5.13121452e+01 6.60076828e+01 2.74479985e-01
      6.63671341e+01</_>
    <_>
      4.88332319e+00 5.13113899e+01 1.05897316e+02 8.40717018e-01
      1.08771255e+02</_>
    <_>
      4.86535597e+00 5.13109741e+01 8.44753647e+01 3.51379007e-01
      8.40201874e+01</_>
    <_>
      4.83337784e+00 5.13101082e+01 1.15543243e+02 4.28557992e-01
      1.14396729e+02</_>
    <_>
      4.85172796e+00 5.65382462e+01 9.61737976e+01 4.42813993e-01
      1.07554588e+02</_>
    <_>
      4.85724497e+00 5.13107605e+01 7.56531601e+01 3.57125014e-01
      7.48638916e+01</_>
    <_>
      4.88387585e+00 5.13115196e+01 6.19658699e+01 3.06598008e-01
      6.09240150e+01</_>
    <_>
      4.85613012e+00 5.13107529e+01 9.16491547e+01 2.98271000e-01
      9.15786285e+01</_>
    <_>
      4.80737495e+00 5.13094292e+01 9.76053543e+01 2.85228014e-01
      9.38414383e+01</_>
    <_>
      4.82292986e+00 5.13098602e+01 1.11238907e+02 2.66501009e-01
      1.12158203e+02</_>
    <_>
      4.80689287e+00 5.13094292e+01 8.80011673e+01 2.42275998e-01
      9.09996948e+01</_>
    <_>
      4.84003592e+00 5.13103790e+01 7.54295807e+01 1.74119994e-02
      3.74016647e+01</_>
    <_>
      4.83599377e+00 5.13102264e+01 1.14141693e+02 2.21018001e-01
      1.15546288e+02</_>
    <_>
      4.87478209e+00 5.13112297e+01 4.53349991e+01 4.06879991e-01
      4.52546082e+01</_>
    <_>
      4.87427187e+00 5.13112221e+01 6.51813507e+01 4.55486000e-01
      6.52967606e+01</_>
    <_>
      4.88299084e+00 5.13114967e+01 7.27098846e+01 2.73281008e-01
      7.01850204e+01</_>
    <_>
      4.83217812e+00 6.20211754e+01 8.61439362e+01 4.39071000e-01
      8.36885986e+01</_>
    <_>
      4.89549112e+00 5.13117294e+01 8.90748672e+01 7.83091009e-01
      8.87553482e+01</_>
    <_>
      4.82544088e+00 5.13099365e+01 7.42801437e+01 2.24711999e-01
      7.29721069e+01</_>
    <_>
      4.82773685e+00 5.13099785e+01 9.87655487e+01 2.85860002e-01
      9.78417435e+01</_>
    <_>
      4.87055779e+00 5.13111458e+01 9.99923782e+01 2.83670992e-01
      9.94321747e+01</_>
    <_>
      4.93459702e+00 5.13129768e+01 1.11735008e+02 4.64484006e-01
      1.11732735e+02</_>
    <_>
      4.87763309e+00 5.13113441e+01 7.56877365e+01 2.74394989e-01
      7.59916611e+01</_>
    <_>
      4.88470984e+00 5.13115044e+01 9.98026428e+01 3.74814004e-01
      9.86944809e+01</_>
    <_>
      4.81974697e+00 5.13097496e+01 1.11378349e+02 3.18544000e-01
      1.12151649e+02</_>
    <_>
      4.83913279e+00 5.13103218e+01 6.46633530e+01 2.07672000e-01
      6.25442009e+01</_>
    <_>
      4.88806915e+00 5.13115768e+01 9.83595276e+01 4.78098989e-01
      9.79273376e+01</_>
    <_>
      4.87981319e+00 5.15518379e+01 1.10702728e+02 1.00810802e+00
      1.20462303e+02</_>
    <_>
      4.90388203e+00 5.13120193e+01 7.62389221e+01 5.05869985e-01
      7.58946991e+01</_>
    <_>
      4.80941296e+00 5.13094826e+01 9.99532394e+01 2.99059004e-01
      9.94578476e+01</_>
    <_>
      4.85907602e+00 5.13107910e+01 5.05807762e+01 4.38704014e-01
      5.02118378e+01</_>
    <_>
      4.92239285e+00 5.13123055e+01 6.05668259e+01 1.48625898e+00
      6.05571709e+01</_>
    <_>
      4.88800812e+00 5.13116760e+01 4.61392212e+01 1.70650005e-01
      4.75061989e+01</_>
    <_>
      4.82144690e+00 5.13098106e+01 1.11283646e+02 2.85104990e-01
      1.12142647e+02</_>
    <_>
      4.86545897e+00 5.13110046e+01 1.11266228e+02 1.71069995e-01
      1.15991371e+02</_>
    <_>
      4.89969778e+00 5.13118935e+01 9.06233826e+01 5.47017992e-01
      9.12478943e+01</_>
    <_>
      4.85074902e+00 5.13106155e+01 9.97249603e+01 2.50597000e-01
      1.01056541e+02</_>
    <_>
      4.88506985e+00 5.13115196e+01 8.89371948e+01 4.06800002e-01
      8.89809341e+01</_>
    <_>
      4.83129120e+00 5.13100662e+01 1.10518562e+02 3.80490988e-01
      1.17306587e+02</_>
    <_>
      4.93746901e+00 5.13129234e+01 6.59857330e+01 7.60187984e-01
      6.60162735e+01</_>
    <_>
      4.83531094e+00 5.13101845e+01 8.62990265e+01 2.82032996e-01
      8.74219360e+01</_>
    <_>
      4.83806181e+00 5.13102722e+01 9.95208206e+01 2.19977006e-01
      1.01388039e+02</_>
    <_>
      4.92620087e+00 6.32876587e+01 9.00680618e+01 1.32093000e+00
      8.99872513e+01</_>
    <_>
      4.87034893e+00 5.13110733e+01 1.15717346e+02 6.05768025e-01
      1.17008728e+02</_>
    <_>
      4.90071917e+00 5.13119278e+01 1.04276382e+02 5.67408979e-01
      1.03284721e+02</_>
    <_>
      4.84500599e+00 5.22306137e+01 7.19304428e+01 3.87863994e-01
      4.66376572e+01</_>
    <_>
      4.83417416e+00 5.13101273e+01 9.42445221e+01 3.56146991e-01
      9.42162018e+01</_>
    <_>
      4.85566998e+00 5.13107948e+01 6.78700714e+01 3.82100008e-02
      8.80652695e+01</_>
    <_>
      4.87164593e+00 5.13111153e+01 4.53308678e+01 4.63045001e-01
      4.52489243e+01</_>
    <_>
      4.87101889e+00 5.13112144e+01 5.81189079e+01 9.75219980e-02
      4.91946564e+01</_>
    <_>
      4.86902189e+00 5.13111076e+01 8.44920654e+01 2.85383999e-01
      8.39928894e+01</_>
    <_>
      4.85526085e+00 5.13107224e+01 1.20428001e+02 3.93765986e-01
      1.22676300e+02</_>
    <_>
      4.82993507e+00 5.13102112e+01 8.10444260e+01 4.45699990e-01
      7.59486694e+01</_>
    <_>
      4.84458780e+00 5.13104477e+01 8.31912308e+01 2.77554005e-01
      8.51268997e+01</_>
    <_>
      4.85954094e+00 5.13108406e+01 7.29405746e+01 3.41125011e-01
      7.26956024e+01</_>
    <_>
      4.82059908e+00 5.13097954e+01 1.12671005e+02 2.41733000e-01
      1.13791885e+02</_>
    <_>
      4.81100988e+00 5.13926659e+01 6.41278381e+01 2.65974998e-01
      4.75196304e+01</_>
    <_>
      4.81067896e+00 5.13584099e+01 6.37514038e+01 2.70774007e-01
      4.87659035e+01</_>
    <_>
      4.88818693e+00 5.13116035e+01 1.05156059e+02 4.82461989e-01
      1.04982635e+02</_>
    <_>
      4.80461788e+00 5.19163780e+01 8.55317764e+01 2.80575991e-01
      8.06261368e+01</_>
    <_>
      4.90140390e+00 5.13119926e+01 8.89335785e+01 3.78969014e-01
      8.89863815e+01</_>
    <_>
      4.83644390e+00 5.13102074e+01 8.53099594e+01 3.61180007e-01
      8.59587555e+01</_>
    <_>
      4.81992912e+00 5.13385391e+01 6.46293106e+01 2.15387002e-01
      8.67124100e+01</_>
    <_>
      4.81844997e+00 5.13097382e+01 8.67053146e+01 2.39006996e-01
      8.54368134e+01</_>
    <_>
      4.84683323e+00 5.13104935e+01 1.12125626e+02 3.68777990e-01
      1.12798775e+02</_>
    <_>
      4.86929512e+00 5.13111115e+01 6.85633926e+01 3.43533009e-01
      6.84857254e+01</_>
    <_>
      4.86123991e+00 5.13108635e+01 5.11876869e+01 3.39103013e-01
      4.93498268e+01</_>
    <_>
      4.83314180e+00 5.13101082e+01 7.70766983e+01 3.39821994e-01
      7.68901443e+01</_>
    <_>
      4.88247108e+00 5.13114052e+01 8.60556793e+01 4.63115007e-01
      8.51457977e+01</_>
    <_>
      4.80450296e+00 5.16657600e+01 8.53325577e+01 2.70372003e-01
      8.02679214e+01</_>
    <_>
      4.88831997e+00 5.13116379e+01 1.12395470e+02 3.37978989e-01
      1.12319389e+02</_>
    <_>
      4.87628698e+00 5.13113403e+01 1.12388367e+02 1.75169006e-01
      1.12159775e+02</_>
    <_>
      4.87146091e+00 5.13112335e+01 1.12386131e+02 9.32409987e-02
      1.11916771e+02</_>
    <_>
      4.83091021e+00 5.13100433e+01 7.68617325e+01 3.64805996e-01
      7.62265930e+01</_>
    <_>
      4.86033106e+00 5.13330765e+01 6.87147675e+01 6.20158970e-01
      4.71260910e+01</_>
    <_>
      4.86882496e+00 5.13110809e+01 6.54604416e+01 3.80531013e-01
      6.63319702e+01</_>
    <_>
      4.88210487e+00 5.13114662e+01 1.01129753e+02 3.18776995e-01
      1.01528442e+02</_>
    <_>
      4.87688589e+00 5.13113022e+01 1.01172318e+02 3.69356990e-01
      1.01829460e+02</_>
    <_>
      4.86512280e+00 5.13109818e+01 6.20765381e+01 4.02227998e-01
      6.17240562e+01</_>
    <_>
      4.80801678e+00 5.13094673e+01 9.99138565e+01 2.19841003e-01
      9.92305222e+01</_>
    <_>
      4.86594582e+00 5.16280212e+01 7.17066803e+01 5.23139000e-01
      4.07828255e+01</_>
    <_>
      4.82826281e+00 5.13099480e+01 1.09109245e+02 4.98286009e-01
      1.11229652e+02</_>
    <_>
      4.82807922e+00 5.13099823e+01 8.03827820e+01 2.94687986e-01
      8.15697174e+01</_>
    <_>
      4.87794209e+00 5.13112564e+01 1.19846184e+02 6.93381011e-01
      1.20767014e+02</_>
    <_>
      4.84638405e+00 5.13104858e+01 8.35710144e+01 2.98949987e-01
      8.44682541e+01</_>
    <_>
      4.84499598e+00 5.13104401e+01 8.35898438e+01 3.14368010e-01
      8.44791031e+01</_>
    <_>
      4.85814810e+00 5.13108559e+01 6.16044121e+01 7.03020021e-02
      7.18503571e+01</_>
    <_>
      4.86855888e+00 5.13110847e+01 8.65143738e+01 3.21987987e-01
      8.68776779e+01</_>
    <_>
      4.85921097e+00 5.13108215e+01 4.47288895e+01 3.21373999e-01
      4.26277733e+01</_>
    <_>
      4.87191582e+00 5.13112297e+01 1.22306786e+02 6.33879974e-02
      1.12469955e+02</_>
    <_>
      4.82803488e+00 5.13099594e+01 1.12451149e+02 4.43964988e-01
      1.12045204e+02</_>
    <_>
      4.84343576e+00 5.13103905e+01 7.28902893e+01 3.30395013e-01
      7.26095734e+01</_>
    <_>
      4.86391401e+00 5.13109703e+01 5.18673630e+01 2.73124009e-01
      5.10079498e+01</_>
    <_>
      4.83676004e+00 5.13102264e+01 5.28267937e+01 2.76097000e-01
      5.40837440e+01</_>
    <_>
      4.81809378e+00 5.13099556e+01 6.43531799e+01 3.09614986e-01
      5.68485451e+01</_>
    <_>
      4.88250780e+00 5.13114738e+01 9.44590378e+01 3.42494011e-01
      9.63034821e+01</_>
    <_>
      4.86483097e+00 5.13110428e+01 4.48698082e+01 2.74212986e-01
      4.36708908e+01</_>
    <_>
      4.86167622e+00 5.13109589e+01 7.57144318e+01 2.60814995e-01
      7.51961823e+01</_>
    <_>
      4.84921408e+00 5.13105736e+01 6.48485565e+01 2.96148986e-01
      6.35199127e+01</_>
    <_>
      4.83848286e+00 5.13102570e+01 1.01662315e+02 3.20309997e-01
      1.01850426e+02</_>
    <_>
      4.86013222e+00 5.13108559e+01 1.15044968e+02 2.92833000e-01
      1.14683334e+02</_>
    <_>
      4.84696722e+00 5.13105087e+01 5.61620255e+01 2.78667986e-01
      5.57031784e+01</_>
    <_>
      4.87254477e+00 5.13111916e+01 9.83074341e+01 2.97017992e-01
      9.74498672e+01</_>
    <_>
      4.86666584e+00 5.13110504e+01 6.90561523e+01 2.33034000e-01
      4.58395767e+01</_>
    <_>
      4.85732794e+00 5.13107491e+01 7.56089249e+01 3.86070013e-01
      7.68148346e+01</_>
    <_>
      4.89207411e+00 5.13117638e+01 8.90107727e+01 3.33795011e-01
      8.90716782e+01</_>
    <_>
      4.88335419e+00 5.13114738e+01 1.11084717e+02 2.99816012e-01
      1.13009010e+02</_>
    <_>
      4.87076521e+00 5.13111229e+01 4.49020538e+01 5.60339987e-01
      4.45111542e+01</_>
    <_>
      4.87489510e+00 5.13112564e+01 7.26081390e+01 3.03701013e-01
      7.00204697e+01</_>
    <_>
      4.86127901e+00 5.13109550e+01 7.24391479e+01 5.14140017e-02
      5.42024498e+01</_>
    <_>
      4.82483006e+00 5.13930397e+01 6.67580872e+01 3.07166010e-01
      5.16959457e+01</_>
    <_>
      4.89666605e+00 5.13118973e+01 1.11679138e+02 2.71245003e-01
      1.11021362e+02</_>
    <_>
      4.87068892e+00 5.13111992e+01 8.89395599e+01 1.20963998e-01
      8.90696945e+01</_>
    <_>
      4.83037710e+00 5.13100395e+01 7.17670288e+01 3.58999014e-01
      6.12351379e+01</_>
    <_>
      4.84522295e+00 5.13104172e+01 1.11218033e+02 3.74161005e-01
      1.10332230e+02</_>
    <_>
      4.85919523e+00 5.13108253e+01 6.28627739e+01 3.21938992e-01
      6.27537155e+01</_>
    <_>
      4.83991194e+00 5.13102951e+01 1.12755058e+02 3.85515004e-01
      1.14236923e+02</_>
    <_>
      4.83130407e+00 5.13100471e+01 1.00861771e+02 3.91723007e-01
      1.04265091e+02</_>
    <_>
      4.87034798e+00 5.13111572e+01 7.56962967e+01 2.24303007e-01
      7.61055069e+01</_>
    <_>
      4.88100910e+00 5.13114471e+01 8.81038895e+01 3.57775986e-01
      8.74990311e+01</_>
    <_>
      4.88422012e+00 5.13114624e+01 8.60744095e+01 4.59883004e-01
      8.52011261e+01</_>
    <_>
      4.81357908e+00 5.33455811e+01 6.67547531e+01 3.20912987e-01
      4.18837013e+01</_>
    <_>
      4.85693407e+00 5.13107719e+01 9.91152191e+01 2.95515001e-01
      9.80347137e+01</_>
    <_>
      4.81319094e+00 5.13095818e+01 1.19529938e+02 2.97769994e-01
      1.18848167e+02</_>
    <_>
      4.82713985e+00 5.13099670e+01 7.43046112e+01 2.68061012e-01
      7.32176743e+01</_>
    <_>
      4.85447407e+00 5.13107071e+01 6.49320602e+01 2.72264987e-01
      6.53102875e+01</_>
    <_>
      4.81651020e+00 5.13102188e+01 1.08518013e+02 2.90479004e-01
      1.15331940e+02</_>
    <_>
      4.83311415e+00 5.13101158e+01 9.56478882e+01 3.62506986e-01
      9.69137802e+01</_>
    <_>
      4.81401110e+00 5.13096046e+01 1.19599953e+02 2.92905986e-01
      1.18906235e+02</_>
    <_>
      4.83705187e+00 5.13102303e+01 1.02911644e+02 3.33027005e-01
      1.01492302e+02</_>
    <_>
      4.87357521e+00 5.13112221e+01 1.11862915e+02 4.95624006e-01
      1.12304192e+02</_>
    <_>
      4.83934116e+00 5.13102608e+01 8.33767014e+01 3.85073006e-01
      8.48599243e+01</_>
    <_>
      4.86058283e+00 5.13108902e+01 9.45767593e+01 1.98480994e-01
      9.75040894e+01</_>
    <_>
      4.86771822e+00 5.13110504e+01 9.39930801e+01 3.14368993e-01
      9.26918259e+01</_>
    <_>
      4.90897179e+00 5.13119659e+01 6.23545227e+01 1.33595300e+00
      6.23334160e+01</_>
    <_>
      4.87460518e+00 5.13112984e+01 5.52839317e+01 1.36172995e-01
      5.18212662e+01</_>
    <_>
      4.86199379e+00 5.13109055e+01 5.79359741e+01 2.34518006e-01
      5.37744675e+01</_>
    <_>
      4.89727020e+00 5.13118973e+01 6.38737755e+01 2.73820996e-01
      6.26948242e+01</_>
    <_>
      4.86834097e+00 5.13110847e+01 6.51895218e+01 3.27825993e-01
      6.54049377e+01</_>
    <_>
      4.83550787e+00 5.13101768e+01 9.42460938e+01 3.23305994e-01
      9.42173462e+01</_>
    <_>
      4.83928108e+00 5.13102951e+01 1.01658089e+02 2.75350988e-01
      1.01874359e+02</_>
    <_>
      4.81708288e+00 5.13097076e+01 7.75015717e+01 2.50447989e-01
      6.94068680e+01</_>
    <_>
      4.83944988e+00 5.13103104e+01 1.09295036e+02 2.57604986e-01
      1.08932709e+02</_>
    <_>
      4.84823990e+00 5.13483467e+01 1.06435181e+02 5.81821978e-01
      1.13827713e+02</_>
    <_>
      4.81305695e+00 5.15162544e+01 8.58704224e+01 2.97407001e-01
      9.10993347e+01</_>
    <_>
      4.83331108e+00 5.13101311e+01 7.28847885e+01 3.50089014e-01
      6.18038826e+01</_>
    <_>
      4.84779596e+00 5.13105431e+01 8.84825134e+01 2.64030993e-01
      8.59897537e+01</_>
    <_>
      4.89869690e+00 5.13118896e+01 6.60165176e+01 3.59914988e-01
      6.63326721e+01</_>
    <_>
      4.85340881e+00 5.13106155e+01 6.48714981e+01 4.91371006e-01
      6.40946732e+01</_>
    <_>
      4.84446907e+00 5.13104324e+01 7.28959503e+01 2.89476991e-01
      7.25783157e+01</_>
    <_>
      4.86322403e+00 5.13109207e+01 9.16525421e+01 3.96528989e-01
      9.16090012e+01</_>
    <_>
      4.82290602e+00 5.23453255e+01 7.12991943e+01 3.55560988e-01
      4.13868103e+01</_>
    <_>
      4.87794495e+00 5.13113060e+01 7.29772339e+01 5.14675975e-01
      7.28376312e+01</_>
    <_>
      4.86718082e+00 5.13110924e+01 1.19818871e+02 1.79903999e-01
      1.20162033e+02</_>
    <_>
      4.82558584e+00 5.13099365e+01 1.05791550e+02 2.36422002e-01
      1.03869019e+02</_>
    <_>
      4.83381796e+00 5.13101387e+01 7.69322205e+01 3.33685994e-01
      7.62534409e+01</_>
    <_>
      4.83284616e+00 5.13101082e+01 7.69152298e+01 3.38306010e-01
      7.62422562e+01</_>
    <_>
      4.83217192e+00 5.13100815e+01 7.68977356e+01 3.58868003e-01
      7.62603302e+01</_>
    <_>
      4.82928896e+00 5.13100014e+01 9.87873688e+01 3.37637007e-01
      9.80162735e+01</_>
    <_>
      4.86394691e+00 5.13109474e+01 9.91905518e+01 4.42303002e-01
      9.88142853e+01</_>
    <_>
      4.89649391e+00 5.13117790e+01 8.38525467e+01 6.57725990e-01
      8.31532669e+01</_>
    <_>
      4.85759306e+00 5.13108482e+01 7.48064651e+01 1.14932001e-01
      6.75757446e+01</_>
    <_>
      4.85793686e+00 5.13107948e+01 4.48181076e+01 2.91736007e-01
      4.62652359e+01</_>
    <_>
      4.84852791e+00 5.13123093e+01 8.93597336e+01 2.88028002e-01
      8.72368622e+01</_>
    <_>
      4.83417702e+00 5.13101501e+01 8.63233719e+01 2.90791005e-01
      8.74333572e+01</_>
    <_>
      4.86452007e+00 5.13109932e+01 9.08835526e+01 2.65318006e-01
      9.29351959e+01</_>
    <_>
      4.87623405e+00 5.13112030e+01 5.24107094e+01 6.80927992e-01
      5.27998199e+01</_>
    <_>
      4.85602713e+00 5.13107491e+01 7.22937317e+01 3.10451001e-01
      7.26929092e+01</_>
    <_>
      4.89025497e+00 5.13116798e+01 5.67420807e+01 3.54851991e-01
      5.72125511e+01</_>
    <_>
      4.82757187e+00 5.17193985e+01 6.75428238e+01 4.12970006e-01
      5.13430519e+01</_>
    <_>
      4.88037014e+00 5.13114243e+01 6.19481812e+01 2.83266991e-01
      6.07101746e+01</_>
    <_>
      4.85361481e+00 5.13107071e+01 1.06515167e+02 2.07807004e-01
      1.07343452e+02</_>
    <_>
      4.85336018e+00 5.13106270e+01 9.40051575e+01 5.13045013e-01
      9.32902756e+01</_>
    <_>
      4.84594822e+00 5.13104668e+01 9.42509384e+01 3.40456009e-01
      9.42296295e+01</_>
    <_>
      4.83714390e+00 5.13746452e+01 6.99272156e+01 2.69694000e-01
      4.25751266e+01</_>
    <_>
      4.89838219e+00 5.13118248e+01 1.19538383e+02 7.59766996e-01
      1.19951363e+02</_>
    <_>
      4.86719084e+00 5.13110085e+01 4.47538452e+01 4.41560000e-01
      4.56209030e+01</_>
    <_>
      4.84981489e+00 5.13106117e+01 4.49208832e+01 1.79366007e-01
      4.75557213e+01</_>
    <_>
      4.81135082e+00 5.13112679e+01 8.68480606e+01 3.18304002e-01
      8.97089310e+01</_>
    <_>
      4.85366392e+00 5.13107033e+01 7.56258850e+01 2.24766001e-01
      7.41216583e+01</_>
    <_>
      4.86817122e+00 5.13109818e+01 1.15829346e+02 7.11041987e-01
      1.16952591e+02</_>
    <_>
      4.83766317e+00 5.13102684e+01 5.28030434e+01 2.26148993e-01
      5.43303795e+01</_>
    <_>
      4.86174917e+00 5.13109436e+01 6.15603065e+01 1.01365000e-01
      6.80066147e+01</_>
    <_>
      4.87564898e+00 5.13112869e+01 9.45493164e+01 2.73638010e-01
      9.76157684e+01</_>
    <_>
      4.92359591e+00 5.13126259e+01 8.89296722e+01 4.44909006e-01
      8.89588776e+01</_>
    <_>
      4.87964487e+00 5.13112488e+01 1.17059021e+02 9.36141014e-01
      1.16644867e+02</_>
    <_>
      4.87114477e+00 5.13111496e+01 6.54437332e+01 3.65752995e-01
      6.63146515e+01</_>
    <_>
      4.85889196e+00 5.13107948e+01 7.55826950e+01 3.93588006e-01
      7.67268982e+01</_>
    <_>
      4.87788200e+00 5.13113441e+01 6.37629013e+01 3.02161992e-01
      6.23333244e+01</_>
    <_>
      4.91469908e+00 5.13122864e+01 1.05039528e+02 7.28586972e-01
      1.04905563e+02</_>
    <_>
      4.81659412e+00 5.13107224e+01 8.30125275e+01 2.48676002e-01
      7.13084335e+01</_>
    <_>
      4.89387703e+00 5.13117943e+01 1.05166847e+02 4.94246006e-01
      1.05078484e+02</_>
    <_>
      4.88142014e+00 5.13114319e+01 6.51640854e+01 4.49873000e-01
      6.46300507e+01</_>
    <_>
      4.83501196e+00 5.13348503e+01 8.25911636e+01 4.52697009e-01
      7.62890472e+01</_>
    <_>
      4.89411688e+00 5.13118210e+01 5.72858849e+01 2.87687004e-01
      5.68408241e+01</_>
    <_>
      4.92421103e+00 5.13125038e+01 7.28862991e+01 1.01175296e+00
      7.28698578e+01</_>
    <_>
      4.83633995e+00 5.13102188e+01 9.49398956e+01 2.60583013e-01
      9.67625656e+01</_>
    <_>
      4.87848997e+00 5.13113632e+01 8.74473190e+01 3.05824012e-01
      8.76319885e+01</_>
    <_>
      4.89103889e+00 5.13117218e+01 7.54837799e+01 3.75746995e-01
      7.46638794e+01</_>
    <_>
      4.84575987e+00 5.13104477e+01 1.06326706e+02 4.24100012e-01
      1.05607170e+02</_>
    <_>
      4.86891985e+00 5.13111305e+01 9.40127945e+01 1.95479006e-01
      9.19721069e+01</_>
    <_>
      4.82120705e+00 5.13098259e+01 1.12646049e+02 2.15112001e-01
      1.13907318e+02</_>
    <_>
      4.86788177e+00 5.13110199e+01 1.10037178e+02 5.97019970e-01
      1.10784592e+02</_>
    <_>
      4.84097099e+00 5.13109169e+01 7.49772644e+01 3.84276003e-01
      6.41425095e+01</_>
    <_>
      4.85451603e+00 5.18945847e+01 7.82248154e+01 4.38948989e-01
      6.27660789e+01</_>
    <_>
      4.85787392e+00 5.13108025e+01 9.09716339e+01 2.69423008e-01
      9.31432114e+01</_>
    <_>
      4.85393095e+00 5.13106689e+01 9.90789871e+01 3.41764987e-01
      9.81072693e+01</_>
    <_>
      4.83114100e+00 5.13101006e+01 7.44182739e+01 2.12384000e-01
      7.30618134e+01</_>
    <_>
      4.89382076e+00 5.13117752e+01 7.62073822e+01 3.54481012e-01
      7.54928207e+01</_>
    <_>
      4.85990286e+00 5.13108330e+01 5.02876205e+01 3.91133010e-01
      5.06924744e+01</_>
    <_>
      4.86635685e+00 5.13110275e+01 5.02565727e+01 3.67532015e-01
      5.06569901e+01</_>
    <_>
      4.85934019e+00 5.13108635e+01 4.47955856e+01 2.12707996e-01
      4.67337189e+01</_>
    <_>
      4.84267807e+00 5.13103676e+01 8.51864243e+01 3.92672986e-01
      8.57705460e+01</_>
    <_>
      4.87321615e+00 5.13112030e+01 6.21090851e+01 5.32562017e-01
      6.19941330e+01</_>
    <_>
      4.86006308e+00 5.13108559e+01 6.20534897e+01 3.31972003e-01
      6.15018578e+01</_>
    <_>
      4.82436609e+00 5.13098831e+01 1.05709137e+02 2.92710990e-01
      1.04121651e+02</_>
    <_>
      4.87458086e+00 5.13112755e+01 7.53237534e+01 2.08009005e-01
      7.18560715e+01</_>
    <_>
      4.86826706e+00 5.13110695e+01 7.49654694e+01 3.35124999e-01
      7.27534866e+01</_>
    <_>
      4.88774681e+00 5.13116035e+01 9.41101837e+01 3.96301001e-01
      9.33116302e+01</_>
    <_>
      4.85504103e+00 5.13106956e+01 9.10377655e+01 3.41993988e-01
      9.28160477e+01</_>
    <_>
      4.84728193e+00 5.13104782e+01 5.03779335e+01 3.88756007e-01
      5.04094009e+01</_>
    <_>
      4.85728407e+00 5.13107758e+01 1.01782112e+02 3.10135990e-01
      1.03888870e+02</_>
    <_>
      4.88736296e+00 5.13115883e+01 9.98218460e+01 3.63932014e-01
      9.87593155e+01</_>
    <_>
      4.85115290e+00 5.13106461e+01 1.11319008e+02 2.14373007e-01
      1.10025375e+02</_>
    <_>
      4.89133787e+00 5.13115959e+01 1.00301895e+02 8.73480976e-01
      1.01323257e+02</_>
    <_>
      4.90436506e+00 5.13120575e+01 9.91058350e+01 3.66842002e-01
      9.87556534e+01</_>
    <_>
      4.82832909e+00 5.13100166e+01 1.12462814e+02 2.36569002e-01
      1.13594650e+02</_>
    <_>
      4.81950283e+00 5.13109589e+01 6.49909668e+01 2.68431991e-01
      5.53892860e+01</_>
    <_>
      4.88910294e+00 5.13117371e+01 5.53766174e+01 2.42528006e-01
      5.45777206e+01</_>
    <_>
      4.84598017e+00 5.13104668e+01 1.15285225e+02 3.13053995e-01
      1.16258354e+02</_>
    <_>
      4.86100578e+00 5.13108635e+01 9.09408417e+01 3.33240986e-01
      9.26478806e+01</_>
    <_>
      4.84078979e+00 5.40049171e+01 1.05430573e+02 6.17792010e-01
      1.15537804e+02</_>
    <_>
      4.90269279e+00 5.13120575e+01 1.13595085e+02 2.48934001e-01
      1.12844208e+02</_>
    <_>
      4.83479786e+00 5.13116951e+01 1.07330544e+02 4.92318988e-01
      1.10576569e+02</_>
    <_>
      4.85590792e+00 5.13107758e+01 6.49267960e+01 2.03661993e-01
      6.54243317e+01</_>
    <_>
      4.84888220e+00 5.13748894e+01 1.06243309e+02 5.75486004e-01
      1.14340118e+02</_>
    <_>
      4.83630610e+00 5.13101845e+01 7.69649048e+01 3.91539991e-01
      7.63963318e+01</_>
    <_>
      4.81457520e+00 5.73788795e+01 6.81568909e+01 3.14830989e-01
      4.48673248e+01</_>
    <_>
      4.86290789e+00 5.13108864e+01 1.19829063e+02 4.29488987e-01
      1.19983589e+02</_>
    <_>
      4.84408712e+00 5.13104477e+01 8.61540604e+01 2.28184000e-01
      8.73251190e+01</_>
    <_>
      4.82412386e+00 5.13098564e+01 7.94252548e+01 4.04413998e-01
      7.42163391e+01</_>
    <_>
      4.88644218e+00 5.13115540e+01 7.39598160e+01 4.62550014e-01
      7.38293304e+01</_>
    <_>
      4.91639805e+00 5.13122673e+01 6.74789658e+01 9.71400023e-01
      6.75416718e+01</_>
    <_>
      4.88445091e+00 5.13115120e+01 6.20242233e+01 2.91016996e-01
      5.81142197e+01</_>
    <_>
      4.88100719e+00 5.13114090e+01 7.26781464e+01 3.49754006e-01
      7.06193848e+01</_>
    <_>
      4.87860823e+00 5.13114204e+01 5.22689362e+01 1.22813001e-01
      5.51870003e+01</_>
    <_>
      4.86068678e+00 5.13108788e+01 7.56973419e+01 3.52486998e-01
      7.51866150e+01</_>
    <_>
      4.89442205e+00 5.13115959e+01 1.06421066e+02 1.23941505e+00
      1.06421814e+02</_>
    <_>
      4.83547783e+00 5.13101921e+01 1.01670990e+02 2.74814993e-01
      1.01894684e+02</_>
    <_>
      4.85621500e+00 5.13107872e+01 1.15039124e+02 1.81498006e-01
      1.14433350e+02</_>
    <_>
      4.87542677e+00 5.13112450e+01 6.28730659e+01 5.97081006e-01
      6.28353348e+01</_>
    <_>
      4.86488295e+00 5.13109398e+01 7.98064194e+01 5.36008000e-01
      8.02165604e+01</_>
    <_>
      4.84234619e+00 5.13103943e+01 8.32257690e+01 2.48306006e-01
      8.54279861e+01</_>
    <_>
      4.87289476e+00 5.13112183e+01 9.92321014e+01 3.11055988e-01
      9.83903122e+01</_>
    <_>
      4.88252306e+00 5.13114548e+01 8.58187637e+01 4.55118001e-01
      8.57596054e+01</_>
    <_>
      4.86446095e+00 5.13109474e+01 6.28670158e+01 4.12943989e-01
      6.27956276e+01</_>
    <_>
      4.84933710e+00 5.13105583e+01 5.03759460e+01 3.05408001e-01
      5.04017944e+01</_>
    <_>
      4.82638407e+00 5.13099747e+01 7.68236694e+01 1.86724007e-01
      7.55478134e+01</_>
    <_>
      4.88278294e+00 5.13115005e+01 4.47698898e+01 2.65037000e-01
      4.52548218e+01</_>
    <_>
      4.89539719e+00 5.13117409e+01 7.90499573e+01 5.64907014e-01
      7.95148621e+01</_>
    <_>
      4.83477020e+00 5.13101387e+01 5.21494293e+01 3.84086013e-01
      5.38826485e+01</_>
    <_>
      4.87978077e+00 5.13114052e+01 8.13632660e+01 2.69457996e-01
      8.04106064e+01</_>
    <_>
      4.84579182e+00 5.13104858e+01 7.57623520e+01 2.30546996e-01
      7.81169357e+01</_>
    <_>
      4.81808901e+00 5.13097191e+01 8.66748734e+01 2.67641991e-01
      8.55397034e+01</_>
    <_>
      4.85844278e+00 5.13108559e+01 9.83953018e+01 1.59242004e-01
      1.00937424e+02</_>
    <_>
      4.87571907e+00 5.13113136e+01 5.22850838e+01 1.80705994e-01
      5.43340912e+01</_>
    <_>
      4.88761377e+00 5.13116226e+01 5.82939835e+01 2.86363989e-01
      5.58545036e+01</_>
    <_>
      4.87216282e+00 5.13111877e+01 8.44996109e+01 3.21168005e-01
      8.40848770e+01</_>
    <_>
      4.86980391e+00 5.13111153e+01 8.90236206e+01 3.43450010e-01
      8.91219711e+01</_>
    <_>
      4.84499216e+00 5.13104095e+01 1.12155609e+02 4.41953003e-01
      1.12717247e+02</_>
    <_>
      4.87425089e+00 5.13112488e+01 4.47882843e+01 2.82656997e-01
      4.53010025e+01</_>
    <_>
      4.84456015e+00 5.13104324e+01 7.57980423e+01 2.76309997e-01
      7.78084946e+01</_>
    <_>
      4.81152391e+00 5.13124886e+01 8.67502441e+01 3.28949988e-01
      8.96356201e+01</_>
    <_>
      4.85952997e+00 5.13108330e+01 6.55574875e+01 3.45972002e-01
      6.67131042e+01</_>
    <_>
      4.88399601e+00 5.13114586e+01 1.06428902e+02 6.61858022e-01
      1.06477814e+02</_>
    <_>
      4.81430578e+00 5.13096161e+01 1.19622879e+02 2.82552004e-01
      1.18904030e+02</_>
    <_>
      4.86504221e+00 5.33471680e+01 1.17436401e+02 3.95503014e-01
      1.18232193e+02</_>
    <_>
      4.81225204e+00 5.13113213e+01 8.97849197e+01 2.86538988e-01
      8.95052948e+01</_>
    <_>
      4.84501410e+00 5.13104668e+01 9.94166260e+01 2.53378004e-01
      1.00953064e+02</_>
    <_>
      4.83947992e+00 5.13103218e+01 8.18426590e+01 2.25256994e-01
      8.26851807e+01</_>
    <_>
      4.91108990e+00 5.13121376e+01 7.28823776e+01 8.19990993e-01
      7.28482742e+01</_>
    <_>
      4.82847404e+00 5.25001488e+01 6.81834183e+01 3.91867995e-01
      4.57532005e+01</_>
    <_>
      4.82665920e+00 5.19171448e+01 8.62585831e+01 3.28321993e-01
      7.78199158e+01</_>
    <_>
      4.90356779e+00 5.13120193e+01 1.04297890e+02 5.56303024e-01
      1.03336899e+02</_>
    <_>
      4.90517521e+00 5.13121033e+01 7.90066299e+01 3.99194002e-01
      7.93790131e+01</_>
    <_>
      4.85480118e+00 5.13106956e+01 9.16478348e+01 3.49635005e-01
      9.15851822e+01</_>
    <_>
      4.86243105e+00 5.13109169e+01 6.20654373e+01 3.49444985e-01
      6.16017761e+01</_>
    <_>
      4.85567284e+00 5.13107224e+01 6.56037750e+01 3.50652993e-01
      6.68122406e+01</_>
    <_>
      4.87557697e+00 5.13112717e+01 6.80621948e+01 3.57010990e-01
      6.75792389e+01</_>
    <_>
      4.83531094e+00 5.13101654e+01 5.28759079e+01 3.25982004e-01
      5.39474678e+01</_>
    <_>
      4.83625507e+00 5.13102112e+01 9.42467499e+01 2.83048004e-01
      9.42150421e+01</_>
    <_>
      4.87014008e+00 5.13110847e+01 6.20950890e+01 5.60979009e-01
      6.19188194e+01</_>
    <_>
      4.86846209e+00 5.13110809e+01 1.15065750e+02 3.32107991e-01
      1.14781662e+02</_>
    <_>
      4.88843203e+00 5.13116570e+01 1.11032288e+02 2.03713998e-01
      1.13428001e+02</_>
    <_>
      4.86270618e+00 5.13109131e+01 9.41719513e+01 4.35063988e-01
      9.35477600e+01</_>
    <_>
      4.88081312e+00 5.13113785e+01 8.89383698e+01 4.36486006e-01
      8.89764633e+01</_>
    <_>
      4.83930922e+00 5.13102951e+01 1.13604774e+02 2.69183010e-01
      1.14989555e+02</_>
    <_>
      4.87830019e+00 5.13113823e+01 1.11114937e+02 1.49689004e-01
      1.15304390e+02</_>
    <_>
      4.85611200e+00 5.13107262e+01 7.29316559e+01 3.85468990e-01
      7.27096252e+01</_>
    <_>
      4.84004211e+00 5.18499985e+01 1.06048141e+02 6.16605997e-01
      1.13408844e+02</_>
    <_>
      4.83707523e+00 5.13232994e+01 1.06933868e+02 4.98524010e-01
      1.11137100e+02</_>
    <_>
      4.84746599e+00 5.13105392e+01 5.03425102e+01 2.15866998e-01
      5.11438751e+01</_>
    <_>
      4.85336113e+00 5.13106537e+01 6.49375839e+01 3.36396992e-01
      6.52436066e+01</_>
    <_>
      4.86529303e+00 5.13110390e+01 7.06973953e+01 1.65061995e-01
      7.64867401e+01</_>
    <_>
      4.85344696e+00 5.16535034e+01 7.79563828e+01 4.71569002e-01
      6.44152298e+01</_>
    <_>
      4.85108995e+00 5.13106155e+01 8.35205231e+01 2.97876000e-01
      8.42959366e+01</_>
    <_>
      4.85843611e+00 5.13107948e+01 6.20402794e+01 3.59275997e-01
      6.14797668e+01</_>
    <_>
      4.84398890e+00 5.13104553e+01 6.57725906e+01 1.81361005e-01
      6.85454788e+01</_>
    <_>
      4.81168222e+00 5.13145638e+01 8.66511307e+01 3.28395993e-01
      8.96693726e+01</_>
    <_>
      4.84231710e+00 5.13103828e+01 1.15323883e+02 2.59128988e-01
      1.16527672e+02</_>
    <_>
      4.87030697e+00 5.13111191e+01 6.48982468e+01 3.94643009e-01
      6.51309967e+01</_>
    <_>
      4.84978294e+00 5.13105545e+01 7.46905670e+01 4.26102012e-01
      7.40788345e+01</_>
    <_>
      4.84254885e+00 5.13103561e+01 7.28842163e+01 3.45178008e-01
      7.26150208e+01</_>
    <_>
      4.81879377e+00 5.13104477e+01 6.47807465e+01 2.70929009e-01
      5.56163940e+01</_>
    <_>
      4.84616184e+00 5.13104858e+01 5.16781769e+01 3.14657986e-01
      5.34930801e+01</_>
    <_>
      4.84165096e+00 5.13103752e+01 7.45926590e+01 2.79570997e-01
      7.36099243e+01</_>
    <_>
      4.94795990e+00 5.13129463e+01 6.48292313e+01 1.82866597e+00
      6.48368759e+01</_>
    <_>
      4.89869404e+00 5.13118820e+01 7.90255814e+01 4.63050008e-01
      7.94691925e+01</_>
    <_>
      4.80965519e+00 6.20205345e+01 9.05030518e+01 2.90926009e-01
      8.75971832e+01</_>
    <_>
      4.82980680e+00 5.13100624e+01 7.80551834e+01 1.97519004e-01
      7.96675186e+01</_>
    <_>
      4.86868382e+00 5.13110619e+01 1.03776947e+02 4.54497010e-01
      1.01704102e+02</_>
    <_>
      4.87328577e+00 5.13111877e+01 1.10472603e+02 5.20092010e-01
      1.10800438e+02</_>
    <_>
      4.81467485e+00 5.13346634e+01 8.98310165e+01 2.94631004e-01
      8.95638046e+01</_>
    <_>
      4.82183695e+00 5.13098335e+01 1.11260864e+02 2.53549010e-01
      1.12229729e+02</_>
    <_>
      4.82470608e+00 5.13098946e+01 1.12548988e+02 3.35534990e-01
      1.19975891e+02</_>
    <_>
      4.83825111e+00 5.13102722e+01 8.18552551e+01 2.57546008e-01
      8.25954590e+01</_>
    <_>
      4.86144400e+00 5.13108711e+01 1.10641045e+02 4.40986991e-01
      1.10180191e+02</_>
    <_>
      4.87794209e+00 5.13114166e+01 7.90964584e+01 3.05809993e-02
      9.08899918e+01</_>
    <_>
      4.84526396e+00 5.13104401e+01 5.03635178e+01 3.27450991e-01
      5.08975525e+01</_>
    <_>
      4.86922884e+00 5.13111572e+01 6.74772568e+01 9.16370004e-02
      7.79945450e+01</_>
    <_>
      4.86762619e+00 5.13111038e+01 5.52142258e+01 8.29249993e-02
      4.77585182e+01</_>
    <_>
      4.84308720e+00 5.13103981e+01 6.58052444e+01 2.55755991e-01
      6.78024292e+01</_>
    <_>
      4.82464409e+00 5.13099174e+01 8.04729462e+01 2.12950006e-01
      8.21648636e+01</_>
    <_>
      4.84647179e+00 5.13115311e+01 8.93229675e+01 2.74637014e-01
      8.70654678e+01</_>
    <_>
      4.89852285e+00 5.13117027e+01 9.75777817e+01 1.27923405e+00
      9.75911942e+01</_>
    <_>
      4.89838314e+00 5.13116989e+01 9.75843658e+01 1.18752694e+00
      9.76214676e+01</_>
    <_>
      4.85899401e+00 5.13108482e+01 6.49213943e+01 2.47404993e-01
      6.53242874e+01</_>
    <_>
      4.87036514e+00 5.13111649e+01 9.76615524e+01 3.14696997e-01
      9.83288040e+01</_>
    <_>
      4.86720610e+00 5.13110771e+01 9.76738205e+01 2.85430998e-01
      9.84666443e+01</_>
    <_>
      4.82937288e+00 5.13106155e+01 1.02192963e+02 3.41178000e-01
      1.17246704e+02</_>
    <_>
      4.88114500e+00 5.13114243e+01 9.97819138e+01 2.94180006e-01
      9.82667999e+01</_>
    <_>
      4.86595678e+00 5.13109665e+01 1.01679405e+02 4.61180001e-01
      1.02933464e+02</_>
    <_>
      4.87255621e+00 5.13111725e+01 1.19816048e+02 3.80587012e-01
      1.19967087e+02</_>
    <_>
      4.83321285e+00 5.18498802e+01 7.70434265e+01 3.16439986e-01
      5.35194664e+01</_>
    <_>
      4.87718391e+00 5.13112602e+01 5.13462067e+01 5.33937991e-01
      5.06833382e+01</_>
    <_>
      4.92575502e+00 5.13125229e+01 7.62712173e+01 1.11363602e+00
      7.62252884e+01</_>
    <_>
      4.81283188e+00 5.17190018e+01 6.53086853e+01 3.31068009e-01
      4.76835518e+01</_>
    <_>
      4.83162498e+00 5.13100967e+01 9.42439423e+01 2.41978005e-01
      9.42028427e+01</_>
    <_>
      4.84005880e+00 5.13103104e+01 5.18029251e+01 3.04675013e-01
      5.10254402e+01</_>
    <_>
      4.84472704e+00 5.13103676e+01 9.63710327e+01 6.14242971e-01
      9.71713181e+01</_>
    <_>
      4.84925508e+00 5.13105812e+01 1.11300919e+02 2.36157000e-01
      1.10077110e+02</_>
    <_>
      4.84007311e+00 5.13103065e+01 9.89737778e+01 3.35709006e-01
      9.82766113e+01</_>
    <_>
      4.83325386e+00 5.13101273e+01 9.34975739e+01 3.06679994e-01
      9.18429871e+01</_>
    <_>
      4.84084606e+00 5.16620331e+01 8.35004349e+01 5.49181998e-01
      7.68429871e+01</_>
    <_>
      4.82764292e+00 5.13478432e+01 7.51580505e+01 2.98698008e-01
      5.66074867e+01</_>
    <_>
      4.86258316e+00 5.13109245e+01 5.12258453e+01 2.69378006e-01
      4.90914764e+01</_>
    <_>
      4.90107393e+00 5.13117638e+01 6.13161201e+01 1.30882096e+00
      6.13135567e+01</_>
    <_>
      4.89951611e+00 5.13177719e+01 9.92289429e+01 4.06428993e-01
      9.91418228e+01</_>
    <_>
      4.88478184e+00 5.13115768e+01 6.72752762e+01 1.54333994e-01
      7.19132538e+01</_>
    <_>
      4.85935783e+00 5.13108406e+01 8.65461044e+01 2.95798987e-01
      8.70636063e+01</_>
    <_>
      4.89762020e+00 5.13119278e+01 6.22067184e+01 2.49567002e-01
      5.89283638e+01</_>
    <_>
      4.85779619e+00 5.13107681e+01 9.46548233e+01 3.36616993e-01
      9.66298523e+01</_>
    <_>
      4.84048414e+00 5.13103447e+01 1.01654106e+02 2.43330002e-01
      1.01892853e+02</_>
    <_>
      4.90683889e+00 5.13121185e+01 6.76611023e+01 4.22984004e-01
      6.74624481e+01</_>
    <_>
      4.86064100e+00 5.13108749e+01 5.03728485e+01 3.50661010e-01
      5.03585510e+01</_>
    <_>
      4.82648802e+00 5.20074959e+01 6.25414925e+01 3.38108003e-01
      8.78404007e+01</_>
    <_>
      4.91254187e+00 5.13121109e+01 1.19462280e+02 1.19843197e+00
      1.19560646e+02</_>
    <_>
      4.87693310e+00 5.13112984e+01 1.01142609e+02 3.25616986e-01
      1.01579620e+02</_>
    <_>
      4.87187719e+00 5.13111534e+01 6.51851425e+01 4.21045989e-01
      6.53345108e+01</_>
    <_>
      4.84720898e+00 5.19148598e+01 9.75718460e+01 4.68362004e-01
      1.10397156e+02</_>
    <_>
      4.91118193e+00 5.13122444e+01 7.62549210e+01 5.16659975e-01
      7.60206146e+01</_>
    <_>
      4.88897324e+00 5.13116264e+01 8.38117218e+01 4.61502999e-01
      8.27071075e+01</_>
    <_>
      4.86959505e+00 5.13111305e+01 1.01203346e+02 2.53829986e-01
      1.02367119e+02</_>
    <_>
      4.86216211e+00 5.13108673e+01 6.85571671e+01 4.43271011e-01
      6.84872665e+01</_>
    <_>
      4.81799221e+00 5.14312439e+01 8.08676224e+01 1.81707993e-01
      6.15870628e+01</_>
    <_>
      4.83751917e+00 5.13102341e+01 1.04650307e+02 3.24128985e-01
      1.03959587e+02</_>
    <_>
      4.87420702e+00 5.13112602e+01 1.01543739e+02 3.15302014e-01
      1.02990952e+02</_>
    <_>
      4.88528919e+00 5.13115349e+01 6.37995071e+01 3.64318997e-01
      6.27029800e+01</_>
    <_>
      4.88616896e+00 5.13115654e+01 4.61532669e+01 3.06255013e-01
      4.70220642e+01</_>
    <_>
      4.81609011e+00 5.13102798e+01 7.75427246e+01 2.70383000e-01
      6.37682457e+01</_>
    <_>
      4.86019421e+00 5.13108711e+01 7.83074493e+01 2.68873006e-01
      7.92619934e+01</_>
    <_>
      4.88595295e+00 5.13114815e+01 1.19687782e+02 7.20978022e-01
      1.20396584e+02</_>
    <_>
      4.83342505e+00 5.13101463e+01 1.10257484e+02 2.49488994e-01
      1.08717377e+02</_>
    <_>
      4.84289408e+00 5.13103523e+01 9.64024734e+01 5.17876983e-01
      9.73571396e+01</_>
    <_>
      4.84092379e+00 5.13103142e+01 8.32987671e+01 3.59854996e-01
      8.48483658e+01</_>
    <_>
      4.81624699e+00 5.13096886e+01 8.58455734e+01 2.23346993e-01
      8.69496765e+01</_>
    <_>
      4.87206984e+00 5.13112183e+01 1.01187218e+02 2.22037002e-01
      1.02402351e+02</_>
    <_>
      4.85047579e+00 5.13105698e+01 7.29122925e+01 3.94134015e-01
      7.26875839e+01</_>
    <_>
      4.89081287e+00 5.13117867e+01 1.11009689e+02 7.65220001e-02
      1.16800789e+02</_>
    <_>
      4.91457081e+00 5.13123741e+01 6.23528976e+01 4.19281989e-01
      6.14317589e+01</_>
    <_>
      4.83234787e+00 5.13100815e+01 7.23333588e+01 4.03908998e-01
      6.29243240e+01</_>
    <_>
      4.81179094e+00 5.13095665e+01 1.19506104e+02 2.26375997e-01
      1.18599838e+02</_>
    <_>
      4.85543489e+00 5.13106995e+01 6.20097237e+01 4.05465007e-01
      6.14215126e+01</_>
    <_>
      4.91237688e+00 5.13122559e+01 5.73102684e+01 6.99832022e-01
      5.72390022e+01</_>
    <_>
      4.88923979e+00 5.13116455e+01 8.74376373e+01 4.08057988e-01
      8.75323639e+01</_>
    <_>
      4.88922119e+00 5.13116226e+01 8.46598282e+01 5.37293971e-01
      8.58774567e+01</_>
    <_>
      4.86017084e+00 5.13108788e+01 5.62159309e+01 3.19833010e-01
      5.59589539e+01</_>
    <_>
      4.83703709e+00 5.13102531e+01 9.42474442e+01 2.29628995e-01
      9.42076035e+01</_>
    <_>
      4.93033981e+00 5.13125534e+01 9.00962219e+01 1.33546400e+00
      8.98872070e+01</_>
    <_>
      4.84256506e+00 5.13103943e+01 1.01650085e+02 2.74345994e-01
      1.01859184e+02</_>
    <_>
      4.87568092e+00 5.13113098e+01 4.53365898e+01 2.70536005e-01
      4.52193909e+01</_>
    <_>
      4.80987215e+00 5.13194427e+01 6.26792297e+01 2.78715998e-01
      5.05964012e+01</_>
    <_>
      4.84025288e+00 5.13103447e+01 9.80064163e+01 2.07245007e-01
      1.00123322e+02</_>
    <_>
      4.88024807e+00 5.13113785e+01 8.58171310e+01 4.70342010e-01
      8.57493057e+01</_>
    <_>
      4.84813118e+00 5.23411980e+01 9.72367706e+01 4.79752004e-01
      1.09776611e+02</_>
    <_>
      4.87340498e+00 5.13112679e+01 8.74500504e+01 1.57141998e-01
      8.78336945e+01</_>
    <_>
      4.82682991e+00 5.13099785e+01 1.12484131e+02 2.20174000e-01
      1.13704689e+02</_>
    <_>
      4.84718180e+00 5.13104820e+01 1.11261795e+02 3.53884012e-01
      1.10386314e+02</_>
    <_>
      4.89438915e+00 5.13115959e+01 1.06422379e+02 1.19737995e+00
      1.06427727e+02</_>
    <_>
      4.86274576e+00 5.13109055e+01 8.90289993e+01 3.50059003e-01
      8.91342926e+01</_>
    <_>
      4.86515617e+00 5.13109818e+01 7.55118027e+01 3.71533006e-01
      7.65920563e+01</_>
    <_>
      4.89622116e+00 5.13118439e+01 9.98700562e+01 3.68185014e-01
      9.90515518e+01</_>
    <_>
      4.83487511e+00 5.13101501e+01 9.42452850e+01 3.57059985e-01
      9.42187500e+01</_>
    <_>
      4.88016319e+00 5.17207718e+01 1.10485802e+02 1.01069105e+00
      1.21802238e+02</_>
    <_>
      4.86321878e+00 5.13108444e+01 1.14205811e+02 7.52452016e-01
      1.17724915e+02</_>
    <_>
      4.83566523e+00 5.62998009e+01 6.94754333e+01 5.20590007e-01
      3.85452805e+01</_>
    <_>
      4.86175299e+00 5.13108978e+01 5.06030464e+01 3.96268994e-01
      5.02949333e+01</_>
    <_>
      4.81371593e+00 5.13095970e+01 1.19576881e+02 3.00224990e-01
      1.18900124e+02</_>
    <_>
      4.86714315e+00 5.13110237e+01 8.34962311e+01 4.31811005e-01
      8.17941971e+01</_>
    <_>
      4.84244394e+00 5.13103790e+01 1.04709175e+02 3.04504991e-01
      1.03994484e+02</_>
    <_>
      4.85637617e+00 5.13107262e+01 5.03046722e+01 4.07101989e-01
      5.07066727e+01</_>
    <_>
      4.83557081e+00 5.13101807e+01 1.09274902e+02 3.08634996e-01
      1.08961952e+02</_>
    <_>
      4.85856104e+00 5.13108101e+01 7.83214798e+01 3.20239007e-01
      7.91398697e+01</_>
    <_>
      4.81346416e+00 5.13095970e+01 6.25763969e+01 2.84741998e-01
      5.52565994e+01</_>
    <_>
      4.85693121e+00 5.13107414e+01 4.48419037e+01 3.70822996e-01
      4.60056343e+01</_>
    <_>
      4.84189701e+00 5.13103523e+01 9.37708435e+01 3.70925009e-01
      9.25676422e+01</_>
    <_>
      4.85910892e+00 5.13108253e+01 9.46142426e+01 2.77282000e-01
      9.68625946e+01</_>
    <_>
      4.84277201e+00 5.13103943e+01 8.61721573e+01 2.69192010e-01
      8.71882706e+01</_>
    <_>
      4.83100319e+00 5.13100777e+01 9.88491287e+01 2.48799995e-01
      9.78174210e+01</_>
    <_>
      4.85964584e+00 5.13534203e+01 8.95555496e+01 3.97754997e-01
      8.81708527e+01</_>
    <_>
      4.82453394e+00 5.14512711e+01 6.36322975e+01 3.34441990e-01
      8.17209167e+01</_>
    <_>
      4.82019186e+00 6.05262909e+01 8.99220276e+01 3.41342986e-01
      8.98338242e+01</_>
    <_>
      4.81581688e+00 5.14327927e+01 8.98572159e+01 2.88477987e-01
      8.95924377e+01</_>
    <_>
      4.86771584e+00 5.13111000e+01 6.28386497e+01 1.66186005e-01
      6.64949722e+01</_>
    <_>
      4.83811712e+00 5.13102570e+01 8.62530975e+01 3.01407009e-01
      8.72564621e+01</_>
    <_>
      4.87634277e+00 5.13112946e+01 8.90187531e+01 3.90744001e-01
      8.90949478e+01</_>
    <_>
      4.84586382e+00 5.13104935e+01 9.47308044e+01 2.46995002e-01
      9.65313721e+01</_>
    <_>
      4.84511280e+00 5.13104668e+01 5.18639145e+01 2.50481009e-01
      5.09937401e+01</_>
    <_>
      4.84376717e+00 6.03943825e+01 8.49461899e+01 6.28283024e-01
      8.03569031e+01</_>
    <_>
      4.81348419e+00 5.13095894e+01 1.19553680e+02 3.08160007e-01
      1.18894218e+02</_>
    <_>
      4.87780190e+00 5.13113556e+01 1.11610970e+02 2.60104001e-01
      1.10598923e+02</_>
    <_>
      4.89021778e+00 5.13116913e+01 1.13004631e+02 2.76573986e-01
      1.12735092e+02</_>
    <_>
      4.81196404e+00 5.13105888e+01 8.97752991e+01 2.90856004e-01
      8.95006256e+01</_>
    <_>
      4.87672377e+00 5.13113289e+01 6.19077072e+01 1.96702003e-01
      5.53082008e+01</_>
    <_>
      4.89082384e+00 5.13137131e+01 9.92250977e+01 3.37471008e-01
      9.90943604e+01</_>
    <_>
      4.82635307e+00 5.13099442e+01 1.12505890e+02 2.72210002e-01
      1.13488869e+02</_>
    <_>
      4.86135578e+00 5.13108864e+01 6.28650932e+01 3.31443995e-01
      6.27658272e+01</_>
    <_>
      4.89921093e+00 5.13119965e+01 6.53706207e+01 3.27771008e-01
      6.56640396e+01</_>
    <_>
      4.83882618e+00 5.13102722e+01 5.17858810e+01 3.13879997e-01
      5.10162811e+01</_>
    <_>
      4.84915495e+00 5.13104744e+01 1.18420036e+02 7.02950001e-01
      1.21426605e+02</_>
    <_>
      4.83741999e+00 5.13102455e+01 9.06402359e+01 2.55589992e-01
      9.13861847e+01</_>
    <_>
      4.81800699e+00 5.13097343e+01 1.11402870e+02 2.35530004e-01
      1.12461670e+02</_>
    <_>
      4.89537001e+00 5.13118248e+01 9.90924911e+01 2.91314006e-01
      9.85417633e+01</_>
    <_>
      4.88910007e+00 5.13116760e+01 1.11335846e+02 1.82069004e-01
      1.10728973e+02</_>
    <_>
      4.90303421e+00 5.13118134e+01 1.19793747e+02 1.27086699e+00
      1.19810661e+02</_>
    <_>
      4.80840921e+00 5.13114891e+01 6.16244583e+01 2.55964011e-01
      4.99325905e+01</_>
    <_>
      4.88006401e+00 5.13113670e+01 1.13210915e+02 5.12297988e-01
      1.13681419e+02</_>
    <_>
      4.89396286e+00 5.13117485e+01 9.98554077e+01 4.42784011e-01
      9.91124649e+01</_>
    <_>
      4.85245895e+00 5.13106232e+01 1.00023643e+02 4.22298998e-01
      1.06814056e+02</_>
    <_>
      4.83127308e+00 5.14963417e+01 7.62819748e+01 3.18664998e-01
      5.59373207e+01</_>
    <_>
      4.89943886e+00 5.13119736e+01 5.92274857e+01 2.78863996e-01
      5.98996353e+01</_>
    <_>
      4.82443905e+00 5.13230171e+01 7.43928833e+01 1.98992997e-01
      4.76809120e+01</_>
    <_>
      4.85376501e+00 5.13106499e+01 5.03229828e+01 4.14857000e-01
      5.07266464e+01</_>
    <_>
      4.86237383e+00 5.13109436e+01 4.47740860e+01 2.41488993e-01
      4.64307098e+01</_>
    <_>
      4.82854223e+00 5.13100166e+01 7.68429184e+01 2.48035997e-01
      7.58941193e+01</_>
    <_>
      4.89285803e+00 5.13117142e+01 8.60987167e+01 5.74508011e-01
      8.48836288e+01</_>
    <_>
      4.85865402e+00 5.13184509e+01 6.74979095e+01 6.29141986e-01
      4.71169205e+01</_>
    <_>
      4.85543203e+00 5.13152428e+01 6.11197891e+01 5.33522010e-01
      3.27147980e+01</_>
    <_>
      4.88268614e+00 5.13115387e+01 7.90795822e+01 8.49350020e-02
      8.29666901e+01</_>
    <_>
      4.83561420e+00 5.13187981e+01 1.00311386e+02 3.51700991e-01
      1.15540428e+02</_>
    <_>
      4.88722420e+00 5.13116035e+01 6.20761681e+01 2.67360985e-01
      5.80994949e+01</_>
    <_>
      4.83052206e+00 5.13100471e+01 9.88291779e+01 3.00152004e-01
      9.79724197e+01</_>
    <_>
      4.93649578e+00 5.48129959e+01 9.92389069e+01 1.35128701e+00
      9.92421646e+01</_>
    <_>
      4.90977907e+00 5.13122253e+01 8.25371399e+01 5.78185022e-01
      8.26484299e+01</_>
    <_>
      4.85253477e+00 5.13106155e+01 9.16446304e+01 3.96708995e-01
      9.15822601e+01</_>
    <_>
      4.89457083e+00 5.13118095e+01 6.21669197e+01 2.92836010e-01
      5.90952988e+01</_>
    <_>
      4.80531883e+00 5.13093948e+01 5.81781960e+01 2.35850006e-01
      4.76167755e+01</_>
    <_>
      4.83939886e+00 5.13102493e+01 9.36427383e+01 4.71646994e-01
      9.26388779e+01</_>
    <_>
      4.87134123e+00 5.13111916e+01 5.13204842e+01 2.48061001e-01
      4.96459274e+01</_>
    <_>
      4.86432219e+00 5.13109970e+01 5.12606087e+01 1.96557000e-01
      4.85861435e+01</_>
    <_>
      4.83551884e+00 5.13101616e+01 7.69487152e+01 3.88714999e-01
      7.63715134e+01</_>
    <_>
      4.83131886e+00 5.13100815e+01 1.14268883e+02 2.69060999e-01
      1.15552200e+02</_>
    <_>
      4.87167788e+00 5.13111382e+01 6.21026268e+01 5.49822986e-01
      6.19577446e+01</_>
    <_>
      4.87876511e+00 5.13112564e+01 9.76398010e+01 7.71898985e-01
      9.78635559e+01</_>
    <_>
      4.81707001e+00 5.13097076e+01 1.11428276e+02 2.25678995e-01
      1.12534714e+02</_>
    <_>
      4.82874489e+00 5.13100204e+01 7.80804672e+01 2.22194999e-01
      7.95233078e+01</_>
    <_>
      4.83256817e+00 5.13100853e+01 7.70718384e+01 3.66246998e-01
      7.68987732e+01</_>
    <_>
      4.88897610e+00 5.13127937e+01 9.92231369e+01 4.41421002e-01
      9.91164017e+01</_>
    <_>
      4.83679295e+00 5.13102226e+01 8.62756653e+01 2.96029001e-01
      8.73199310e+01</_>
    <_>
      4.88991117e+00 5.13117027e+01 5.72790527e+01 2.53223985e-01
      5.67064209e+01</_>
    <_>
      4.87977695e+00 5.13113937e+01 5.53123283e+01 2.82867998e-01
      5.39109306e+01</_>
    <_>
      4.83715820e+00 5.13102646e+01 6.46330109e+01 1.94131002e-01
      6.23284035e+01</_>
    <_>
      4.83615589e+00 5.13101921e+01 5.28510513e+01 3.26604992e-01
      5.39170647e+01</_>
    <_>
      4.84026480e+00 5.13103256e+01 7.45749207e+01 2.94937015e-01
      7.36388855e+01</_>
    <_>
      4.84472895e+00 5.13104401e+01 9.90337219e+01 3.35164011e-01
      9.83744736e+01</_>
    <_>
      4.87061596e+00 5.13111649e+01 1.12807121e+02 8.61006021e-01
      1.16481544e+02</_>
    <_>
      4.81746387e+00 5.16661835e+01 8.98740997e+01 3.36603999e-01
      8.96576920e+01</_>
    <_>
      4.85196018e+00 5.13106766e+01 7.28627853e+01 6.30119964e-02
      7.55431976e+01</_>
    <_>
      4.86676407e+00 5.13110237e+01 7.96202850e+01 4.18738991e-01
      7.97159195e+01</_>
    <_>
      4.81959915e+00 5.13097420e+01 7.78979721e+01 3.44559997e-01
      7.20235901e+01</_>
    <_>
      4.82676077e+00 5.13322220e+01 7.47765656e+01 2.88127005e-01
      5.62478294e+01</_>
    <_>
      4.84014797e+00 5.13102875e+01 8.33371658e+01 3.88862997e-01
      8.47870789e+01</_>
    <_>
      4.84391880e+00 5.13103905e+01 9.42498245e+01 3.98562998e-01
      9.42309875e+01</_>
    <_>
      4.82481003e+00 5.14330292e+01 8.54913101e+01 3.34401011e-01
      7.67446976e+01</_>
    <_>
      4.80750084e+00 5.13094330e+01 9.77523804e+01 2.81753004e-01
      9.39253769e+01</_>
    <_>
      4.83169794e+00 5.13100548e+01 9.33771133e+01 3.99695009e-01
      9.20721283e+01</_>
    <_>
      4.84046984e+00 5.13103409e+01 1.13580063e+02 2.32942998e-01
      1.15165398e+02</_>
    <_>
      4.83685303e+00 5.40048752e+01 7.83109360e+01 3.50870013e-01
      5.32578316e+01</_>
    <_>
      4.88561916e+00 5.13116074e+01 6.76374588e+01 1.59223005e-01
      6.69168396e+01</_>
    <_>
      4.85238504e+00 5.13106766e+01 8.34970169e+01 1.81866005e-01
      8.45408478e+01</_>
    <_>
      4.87272501e+00 5.13111801e+01 6.28092499e+01 3.39361995e-01
      6.45142059e+01</_>
    <_>
      4.88397980e+00 5.13115501e+01 6.13602180e+01 3.15568000e-01
      6.19829750e+01</_>
    <_>
      4.87540579e+00 5.13112984e+01 8.89388580e+01 2.21118003e-01
      8.90142593e+01</_>
    <_>
      4.82261705e+00 5.13742142e+01 1.06798523e+02 3.44280988e-01
      1.15796730e+02</_>
    <_>
      4.86169004e+00 5.13108902e+01 6.55362015e+01 3.61766994e-01
      6.66011887e+01</_>
    <_>
      4.87945890e+00 5.14526596e+01 1.10894638e+02 1.00513005e+00
      1.19403343e+02</_>
    <_>
      4.87450886e+00 5.13112297e+01 9.07845230e+01 3.94914001e-01
      9.20130234e+01</_>
    <_>
      4.86271477e+00 5.13108826e+01 1.15949219e+02 5.44519007e-01
      1.17468727e+02</_>
    <_>
      4.83639193e+00 5.13102036e+01 8.18814697e+01 3.05296987e-01
      8.25087509e+01</_>
    <_>
      4.83870077e+00 5.13102341e+01 9.36081009e+01 4.47338998e-01
      9.25338898e+01</_>
    <_>
      4.89863014e+00 5.13119202e+01 8.61514435e+01 3.34089994e-01
      8.52457733e+01</_>
    <_>
      4.88830805e+00 5.13116264e+01 8.61086044e+01 3.07278007e-01
      8.49191513e+01</_>
    <_>
      4.88580990e+00 5.13115387e+01 8.60922089e+01 3.66973013e-01
      8.50452652e+01</_>
    <_>
      4.85926104e+00 5.13108177e+01 5.03731041e+01 3.95096987e-01
      5.03667183e+01</_>
    <_>
      4.83079290e+00 5.13100624e+01 1.08149956e+02 4.03582007e-01
      1.11179710e+02</_>
    <_>
      4.82929087e+00 5.14195442e+01 7.59101715e+01 2.61462003e-01
      5.22395859e+01</_>
    <_>
      4.81143522e+00 5.13095551e+01 9.99965897e+01 2.44616002e-01
      9.53963776e+01</_>
    <_>
      4.86025476e+00 5.13108673e+01 9.65583038e+01 2.87757009e-01
      9.67050476e+01</_>
    <_>
      4.80749416e+00 5.13095741e+01 5.98987236e+01 2.83464998e-01
      5.05290565e+01</_>
    <_>
      4.84820414e+00 5.13105316e+01 8.17741165e+01 3.23013991e-01
      8.23260269e+01</_>
    <_>
      4.87677479e+00 5.13113060e+01 9.07626572e+01 3.63523006e-01
      9.20606003e+01</_>
    <_>
      4.82424021e+00 5.13098640e+01 1.12192444e+02 4.08042014e-01
      1.11759666e+02</_>
    <_>
      4.84744501e+00 5.13105164e+01 1.15266800e+02 2.97136992e-01
      1.16279617e+02</_>
    <_>
      4.85111809e+00 5.13106079e+01 7.23209229e+01 3.26146990e-01
      7.27783661e+01</_>
    <_>
      4.82865620e+00 5.13100090e+01 7.70565567e+01 2.73505002e-01
      7.68168030e+01</_>
    <_>
      4.82867908e+00 5.13103447e+01 1.02591591e+02 3.37971002e-01
      1.17730034e+02</_>
    <_>
      4.82896709e+00 5.73792877e+01 6.31306343e+01 4.79759991e-01
      4.09639053e+01</_>
    <_>
      4.84564495e+00 5.13104897e+01 8.68785172e+01 2.13531002e-01
      8.46078262e+01</_>
    <_>
      4.86719084e+00 5.13110504e+01 9.45109940e+01 2.69353002e-01
      9.63232803e+01</_>
    <_>
      4.87778616e+00 5.13113213e+01 8.13505630e+01 3.43266010e-01
      8.05670395e+01</_>
    <_>
      4.81773615e+00 5.13098412e+01 6.41363831e+01 3.18940014e-01
      5.70177574e+01</_>
    <_>
      4.84539700e+00 5.13104744e+01 7.23540802e+01 2.40857005e-01
      7.30815430e+01</_>
    <_>
      4.86913013e+00 5.13110847e+01 6.06587372e+01 4.14122999e-01
      6.10544052e+01</_>
    <_>
      4.91056299e+00 5.13123207e+01 1.09675819e+02 3.70039999e-01
      1.09875320e+02</_>
    <_>
      4.86393595e+00 5.13109360e+01 1.19825325e+02 3.60742986e-01
      1.20006516e+02</_>
    <_>
      4.87771606e+00 5.13113365e+01 7.97132034e+01 4.48471010e-01
      8.00579987e+01</_>
    <_>
      4.86256599e+00 5.13109512e+01 4.48301582e+01 2.93123990e-01
      4.33338585e+01</_>
    <_>
      4.82476902e+00 5.18496323e+01 1.05920174e+02 3.30040008e-01
      1.19556145e+02</_>
    <_>
      4.85795498e+00 5.13107262e+01 1.15454613e+02 6.76024973e-01
      1.19069839e+02</_>
    <_>
      4.84876394e+00 5.13105621e+01 5.61702003e+01 2.66505003e-01
      5.57142448e+01</_>
    <_>
      4.83392286e+00 5.13101006e+01 1.09944473e+02 4.95979011e-01
      1.15192253e+02</_>
    <_>
      4.87888098e+00 5.13113365e+01 6.53997498e+01 4.82897997e-01
      6.59629974e+01</_>
    <_>
      4.85534191e+00 5.13107185e+01 6.07278175e+01 3.34600002e-01
      6.13325233e+01</_>
    <_>
      4.90464020e+00 5.13120995e+01 7.28796539e+01 3.40090007e-01
      7.15891876e+01</_>
    <_>
      4.87974691e+00 5.13113708e+01 8.90173950e+01 4.39660013e-01
      8.90820007e+01</_>
    <_>
      4.80720091e+00 5.13094254e+01 9.23408508e+01 2.79224992e-01
      8.77623901e+01</_>
    <_>
      4.83980322e+00 5.16272163e+01 1.06206314e+02 6.14301026e-01
      1.12694695e+02</_>
    <_>
      4.83655310e+00 5.13102264e+01 8.34174957e+01 2.60082990e-01
      8.56617126e+01</_>
    <_>
      4.87628222e+00 5.13112831e+01 6.14247894e+01 3.45679998e-01
      6.25420799e+01</_>
    <_>
      4.86848211e+00 5.13110962e+01 7.96168594e+01 3.89339000e-01
      7.96966705e+01</_>
    <_>
      4.87151098e+00 5.13111229e+01 1.15681786e+02 5.70689023e-01
      1.17040314e+02</_>
    <_>
      4.83846617e+00 5.13102684e+01 1.04665680e+02 2.96294004e-01
      1.03914909e+02</_>
    <_>
      4.82991314e+00 5.13100357e+01 1.10712608e+02 3.40384007e-01
      1.18292343e+02</_>
    <_>
      4.85476112e+00 5.13107491e+01 7.77450790e+01 2.33345002e-01
      5.97716293e+01</_>
    <_>
      4.83030987e+00 5.13103714e+01 8.12175751e+01 4.37963992e-01
      7.59615707e+01</_>
    <_>
      4.86063910e+00 5.13108559e+01 6.06951752e+01 3.68622988e-01
      6.12016792e+01</_>
    <_>
      4.83164406e+00 5.13100777e+01 1.10195793e+02 2.80561000e-01
      1.08775803e+02</_>
    <_>
      4.85242987e+00 5.13106613e+01 6.07394867e+01 2.67419010e-01
      6.15214958e+01</_>
    <_>
      4.82008410e+00 5.13184280e+01 8.41525803e+01 3.03140014e-01
      7.44685211e+01</_>
    <_>
      4.81306410e+00 5.20070992e+01 6.57475433e+01 3.29982996e-01
      4.59885254e+01</_>
    <_>
      4.80839300e+00 5.13094673e+01 9.84786301e+01 2.49902993e-01
      9.40856476e+01</_>
    <_>
      4.85203314e+00 5.13106499e+01 1.09344063e+02 2.99874991e-01
      1.09081879e+02</_>
    <_>
      4.80921412e+00 5.13094788e+01 9.99336853e+01 2.87606001e-01
      9.94172592e+01</_>
    <_>
      4.82839394e+00 5.13743935e+01 7.55351105e+01 2.79814005e-01
      5.47199707e+01</_>
    <_>
      4.85081482e+00 5.13106232e+01 5.61781540e+01 2.80027002e-01
      5.57566299e+01</_>
    <_>
      4.84617710e+00 5.13104820e+01 5.03526840e+01 2.68485010e-01
      5.10003090e+01</_>
    <_>
      4.81569099e+00 5.13096428e+01 7.12263870e+01 3.33685011e-01
      6.40505829e+01</_>
    <_>
      4.86755323e+00 5.13110123e+01 1.01648918e+02 4.72950995e-01
      1.02819443e+02</_>
    <_>
      4.85864592e+00 5.13108406e+01 1.01745934e+02 2.38432005e-01
      1.04401558e+02</_>
    <_>
      4.90949917e+00 5.13122368e+01 6.76644440e+01 3.35736990e-01
      6.74219971e+01</_>
    <_>
      4.82551003e+00 5.13099136e+01 1.12337189e+02 3.44319999e-01
      1.19583710e+02</_>
    <_>
      4.82228279e+00 5.19170074e+01 7.04449844e+01 3.45584005e-01
      3.99808922e+01</_>
    <_>
      4.86223412e+00 5.13109398e+01 1.06477432e+02 2.49337003e-01
      1.07005959e+02</_>
    <_>
      4.85288620e+00 5.13107109e+01 6.79160767e+01 5.73339984e-02
      8.18711700e+01</_>
    <_>
      4.87354517e+00 5.13111725e+01 1.15646835e+02 5.97817004e-01
      1.16929634e+02</_>
    <_>
      4.84734011e+00 5.13235435e+01 1.06812469e+02 6.05565012e-01
      1.13061485e+02</_>
    <_>
      4.83906889e+00 5.13103027e+01 9.42480392e+01 2.58841991e-01
      9.42132950e+01</_>
    <_>
      4.90273619e+00 5.13119926e+01 5.24153633e+01 6.38536990e-01
      5.23525887e+01</_>
    <_>
      4.86155701e+00 5.13109016e+01 9.42554169e+01 3.74592006e-01
      9.42399597e+01</_>
    <_>
      4.87593079e+00 5.13111801e+01 1.03587440e+02 7.68387020e-01
      1.03172058e+02</_>
    <_>
      4.88386011e+00 5.13115082e+01 6.91144562e+01 3.81700993e-01
      6.88248749e+01</_>
    <_>
      4.87979698e+00 5.13114586e+01 6.80809860e+01 2.35404000e-01
      6.75242767e+01</_>
    <_>
      4.88917398e+00 5.13116493e+01 1.13554901e+02 2.98525006e-01
      1.12679054e+02</_>
    <_>
      4.81354904e+00 5.13095856e+01 1.00388542e+02 3.36333990e-01
      9.70582275e+01</_>
    <_>
      4.86780024e+00 5.13110466e+01 5.20008316e+01 4.29356992e-01
      5.16839600e+01</_>
    <_>
      4.83624792e+00 5.13178825e+01 1.07036049e+02 4.78606999e-01
      1.11092690e+02</_>
    <_>
      4.83526707e+00 5.13101349e+01 9.00662766e+01 4.94801015e-01
      8.99155884e+01</_>
    <_>
      4.86825323e+00 5.13110657e+01 9.08569641e+01 3.58586013e-01
      9.23296280e+01</_>
    <_>
      4.86963892e+00 5.13111229e+01 7.06507950e+01 2.71813005e-01
      7.40210190e+01</_>
    <_>
      4.90811300e+00 5.13121719e+01 9.91116257e+01 4.00707006e-01
      9.88290100e+01</_>
    <_>
      4.84182405e+00 5.13103485e+01 8.32616959e+01 3.26784998e-01
      8.49484634e+01</_>
    <_>
      4.88984680e+00 5.13116570e+01 9.83681793e+01 3.91804010e-01
      9.78648071e+01</_>
    <_>
      4.84214115e+00 5.13103752e+01 8.68166199e+01 2.44306996e-01
      8.47783737e+01</_>
    <_>
      4.86677980e+00 5.13110657e+01 9.99834671e+01 2.13333994e-01
      9.91839371e+01</_>
    <_>
      4.83612823e+00 5.13102188e+01 7.70902481e+01 2.64842004e-01
      7.68535233e+01</_>
    <_>
      4.87821484e+00 5.13113365e+01 6.19290466e+01 3.45398992e-01
      6.08237648e+01</_>
    <_>
      4.84857893e+00 5.40052338e+01 7.28286743e+01 4.22951013e-01
      4.72978363e+01</_>
    <_>
      4.88109207e+00 5.25015640e+01 1.09977608e+02 1.03617799e+00
      1.24716400e+02</_>
    <_>
      4.85451412e+00 5.13107071e+01 1.13410339e+02 3.24589998e-01
      1.14418694e+02</_>
    <_>
      4.87995195e+00 5.13114281e+01 6.85691833e+01 4.03421998e-01
      6.85121460e+01</_>
    <_>
      4.87971401e+00 5.13114052e+01 4.53380089e+01 3.33739012e-01
      4.52488594e+01</_>
    <_>
      4.80540419e+00 6.05237541e+01 8.66567307e+01 2.95646012e-01
      8.42180939e+01</_>
    <_>
      4.84193707e+00 5.13103561e+01 6.58393784e+01 2.94811994e-01
      6.76004333e+01</_>
    <_>
      4.87135220e+00 5.13110466e+01 1.16931816e+02 8.12255025e-01
      1.16425331e+02</_>
    <_>
      4.86604977e+00 5.13109512e+01 1.16852043e+02 6.51410997e-01
      1.16196793e+02</_>
    <_>
      4.87546396e+00 5.13113174e+01 5.81584663e+01 1.60043001e-01
      5.29517441e+01</_>
    <_>
      4.84630299e+00 5.13187943e+01 7.62119598e+01 4.33115005e-01
      6.55348587e+01</_>
    <_>
      4.84488392e+00 5.13104362e+01 9.79481277e+01 3.20955992e-01
      9.92318497e+01</_>
    <_>
      4.81842995e+00 5.13101387e+01 6.45674973e+01 2.92921007e-01
      5.64042206e+01</_>
    <_>
      4.88828182e+00 5.13116531e+01 7.90641403e+01 2.37909004e-01
      8.03188477e+01</_>
    <_>
      4.83909988e+00 5.13102722e+01 9.89575348e+01 3.56202006e-01
      9.82931824e+01</_>
    <_>
      4.82591820e+00 5.13176003e+01 1.04254906e+02 4.54486012e-01
      9.98134537e+01</_>
    <_>
      4.91080809e+00 5.13121223e+01 8.91429596e+01 1.03103304e+00
      8.90719757e+01</_>
    <_>
      4.81335115e+00 5.13095818e+01 1.00257965e+02 3.26371998e-01
      9.68345184e+01</_>
    <_>
      4.81044912e+00 5.13095093e+01 9.93218613e+01 3.01651001e-01
      9.56755905e+01</_>
    <_>
      4.84809923e+00 5.13105278e+01 1.11281937e+02 2.97003001e-01
      1.10272476e+02</_>
    <_>
      4.80969191e+00 5.13094864e+01 9.87636948e+01 2.97513008e-01
      9.50930023e+01</_>
    <_>
      4.81138515e+00 5.14509354e+01 6.45026474e+01 2.61943996e-01
      4.61076431e+01</_>
    <_>
      4.80515814e+00 5.65609932e+01 8.64097366e+01 2.89620012e-01
      8.27672882e+01</_>
    <_>
      4.82699680e+00 5.13099442e+01 8.04419785e+01 3.19949001e-01
      8.15471497e+01</_>
    <_>
      4.85732889e+00 5.13107758e+01 6.55802155e+01 3.31654012e-01
      6.68200302e+01</_>
    <_>
      4.81733894e+00 5.13097725e+01 6.39224510e+01 3.10741991e-01
      5.67404747e+01</_>
    <_>
      4.84636784e+00 5.13105202e+01 6.57412949e+01 1.96321994e-01
      6.82363129e+01</_>
    <_>
      4.83253002e+00 5.13101311e+01 5.29017372e+01 2.09582001e-01
      5.45913162e+01</_>
    <_>
      4.85136986e+00 5.13106194e+01 1.10554085e+02 3.30242008e-01
      1.09729469e+02</_>
    <_>
      4.86589813e+00 5.13110313e+01 6.85620422e+01 2.86199003e-01
      6.84624252e+01</_>
    <_>
      4.86465311e+00 5.13110428e+01 9.83253632e+01 2.54359990e-01
      9.90999680e+01</_>
    <_>
      4.82322121e+00 5.13098831e+01 8.05049362e+01 1.96199000e-01
      8.23592148e+01</_>
    <_>
      4.85286617e+00 5.15120773e+01 7.76964874e+01 5.22575021e-01
      6.62283401e+01</_>
    <_>
      4.86568213e+00 5.13119926e+01 8.39016724e+01 5.62004983e-01
      7.88531799e+01</_>
    <_>
      4.86659098e+00 5.13110161e+01 1.15060951e+02 3.69758010e-01
      1.14800240e+02</_>
    <_>
      4.92218685e+00 5.13125420e+01 7.30208359e+01 6.04036987e-01
      7.29389267e+01</_>
    <_>
      4.94814777e+00 5.13130150e+01 9.84461594e+01 1.61284995e+00
      9.84459686e+01</_>
    <_>
      4.85828209e+00 5.13108215e+01 8.32946472e+01 3.03146988e-01
      8.05641174e+01</_>
    <_>
      4.83177423e+00 5.13100624e+01 7.20512238e+01 4.05003995e-01
      6.27294388e+01</_>
    <_>
      4.82239199e+00 5.13197708e+01 6.58513794e+01 3.39946002e-01
      5.65543175e+01</_>
    <_>
      4.89861012e+00 5.13119354e+01 1.11345009e+02 2.48157993e-01
      1.10968124e+02</_>
    <_>
      4.90602779e+00 5.13121147e+01 1.09650909e+02 4.11886007e-01
      1.10034164e+02</_>
    <_>
      4.89727783e+00 5.13118439e+01 5.22835121e+01 5.82903981e-01
      5.26378212e+01</_>
    <_>
      4.88281202e+00 5.13114662e+01 7.54001465e+01 3.48360002e-01
      7.38235321e+01</_>
    <_>
      4.89269876e+00 5.13117371e+01 1.12396774e+02 4.17122990e-01
      1.12344872e+02</_>
    <_>
      4.83594179e+00 5.13816223e+01 8.29451523e+01 4.04926986e-01
      7.51897278e+01</_>
    <_>
      4.85952616e+00 5.13107719e+01 1.00369057e+02 6.07212007e-01
      1.03679024e+02</_>
    <_>
      4.86264801e+00 5.13109245e+01 9.09114380e+01 3.08144003e-01
      9.27188797e+01</_>
    <_>
      4.83369923e+00 5.13102798e+01 1.07702858e+02 5.24619997e-01
      1.10282974e+02</_>
    <_>
      4.84503508e+00 5.13104057e+01 1.19925926e+02 5.59212029e-01
      1.23606750e+02</_>
    <_>
      4.84204578e+00 5.13103943e+01 1.13556137e+02 2.17335001e-01
      1.15235275e+02</_>
    <_>
      4.86134481e+00 5.13109131e+01 7.55341644e+01 2.69881994e-01
      7.70946045e+01</_>
    <_>
      4.80858183e+00 5.13129158e+01 6.19751930e+01 2.41431996e-01
      4.90948105e+01</_>
    <_>
      4.82417107e+00 5.13098717e+01 1.12763298e+02 3.45631987e-01
      1.19942375e+02</_>
    <_>
      4.82676792e+00 5.14513168e+01 6.70031204e+01 4.04296994e-01
      5.42123756e+01</_>
    <_>
      4.82984781e+00 5.13100395e+01 7.70618362e+01 2.80937999e-01
      7.68310852e+01</_>
    <_>
      4.87373400e+00 5.13112602e+01 1.11598686e+02 2.07754001e-01
      1.10276382e+02</_>
    <_>
      4.85754204e+00 5.13107796e+01 5.02960167e+01 3.60377997e-01
      5.07454834e+01</_>
    <_>
      4.88392305e+00 5.13115273e+01 5.22536964e+01 2.55537987e-01
      5.36017685e+01</_>
    <_>
      4.85848808e+00 5.13107948e+01 8.90332260e+01 3.55118990e-01
      8.91469498e+01</_>
    <_>
      4.83570814e+00 5.13146896e+01 1.07137054e+02 4.80085999e-01
      1.10896820e+02</_>
    <_>
      4.81772900e+00 5.13096886e+01 7.55125961e+01 3.75149012e-01
      7.62373505e+01</_>
    <_>
      4.89099979e+00 5.13116570e+01 7.92694473e+01 4.86690015e-01
      7.93195496e+01</_>
    <_>
      4.89525890e+00 5.13118668e+01 7.92667236e+01 3.01697999e-01
      7.93160858e+01</_>
    <_>
      4.86556387e+00 5.13109856e+01 5.19929771e+01 4.21793997e-01
      5.16527252e+01</_>
    <_>
      4.88756514e+00 5.13115845e+01 7.27396164e+01 3.69145006e-01
      7.09697723e+01</_>
    <_>
      4.82065582e+00 5.13097801e+01 1.11900925e+02 3.69489998e-01
      1.11429260e+02</_>
    <_>
      4.83920717e+00 5.13102989e+01 7.39296722e+01 2.35260993e-01
      8.65415649e+01</_>
    <_>
      4.87144279e+00 5.13111267e+01 1.01592949e+02 4.45585996e-01
      1.02723274e+02</_>
    <_>
      4.89219999e+00 5.13116837e+01 7.36339111e+01 6.93885028e-01
      7.39288330e+01</_>
    <_>
      4.81004810e+00 5.13094978e+01 9.90448303e+01 3.03878993e-01
      9.54391022e+01</_>
    <_>
      4.87439489e+00 5.13112755e+01 9.83190231e+01 2.10926995e-01
      9.71493073e+01</_>
    <_>
      4.81381989e+00 5.13096085e+01 6.28061638e+01 2.77395010e-01
      5.52420502e+01</_>
    <_>
      4.84328794e+00 5.13104286e+01 8.68481369e+01 1.90834001e-01
      8.42639542e+01</_>
    <_>
      4.84822512e+00 5.13104858e+01 8.91089401e+01 5.27832985e-01
      8.56887054e+01</_>
    <_>
      4.87694311e+00 5.13112717e+01 6.54134903e+01 5.00298977e-01
      6.59868240e+01</_>
    <_>
      4.89014816e+00 5.13116379e+01 1.04148315e+02 5.43316007e-01
      1.02860909e+02</_>
    <_>
      4.82322311e+00 5.14512405e+01 5.88924713e+01 3.48255008e-01
      3.69456787e+01</_>
    <_>
      4.85410118e+00 5.13106728e+01 6.56288376e+01 3.72159988e-01
      6.67962341e+01</_>
    <_>
      4.85114098e+00 5.13105698e+01 6.57111816e+01 4.28817004e-01
      6.68077240e+01</_>
    <_>
      4.86430120e+00 5.13109665e+01 8.90269241e+01 3.11964989e-01
      8.91430054e+01</_>
    <_>
      4.86581516e+00 5.13110275e+01 6.15207596e+01 1.96308002e-01
      6.44937134e+01</_>
    <_>
      4.87629604e+00 5.13112679e+01 6.19080238e+01 3.73562008e-01
      6.08078346e+01</_>
    <_>
      4.84234285e+00 5.13103714e+01 9.94668655e+01 2.83042014e-01
      1.00876923e+02</_>
    <_>
      4.82834721e+00 5.13126793e+01 6.74423218e+01 2.23856002e-01
      3.96803207e+01</_>
    <_>
      4.89261389e+00 5.13117447e+01 8.74356003e+01 4.31079000e-01
      8.75141525e+01</_>
    <_>
      4.85526991e+00 5.13106842e+01 7.29269104e+01 4.43284005e-01
      7.27317429e+01</_>
    <_>
      4.83939981e+00 5.13103218e+01 5.27800255e+01 2.28614002e-01
      5.42791824e+01</_>
    <_>
      4.89585495e+00 5.13117371e+01 6.13324890e+01 8.68066013e-01
      6.14229546e+01</_>
    <_>
      4.91903877e+00 5.13125229e+01 6.23724747e+01 4.40708011e-01
      6.16853142e+01</_>
    <_>
      4.84663010e+00 5.13105087e+01 6.07788849e+01 2.23477006e-01
      6.17822647e+01</_>
    <_>
      4.81248713e+00 5.13125648e+01 8.97943192e+01 2.75595993e-01
      8.95033264e+01</_>
    <_>
      4.85112619e+00 5.13106194e+01 9.90596237e+01 2.74284989e-01
      9.78211212e+01</_>
    <_>
      4.84989309e+00 5.13105812e+01 1.13448509e+02 2.95468986e-01
      1.14595055e+02</_>
    <_>
      4.81509876e+00 5.13522110e+01 8.98398590e+01 3.01735014e-01
      8.95820541e+01</_>
    <_>
      4.83962297e+00 5.13103218e+01 9.94933701e+01 2.04812005e-01
      1.01477486e+02</_>
    <_>
      4.82809782e+00 5.13099442e+01 1.09194313e+02 4.99388009e-01
      1.11289375e+02</_>
    <_>
      4.87873983e+00 5.13112984e+01 1.09845535e+02 6.88064992e-01
      1.10457100e+02</_>
    <_>
      4.81183100e+00 5.13180885e+01 8.65489197e+01 3.25980991e-01
      8.97525253e+01</_>
    <_>
      4.80751514e+00 5.13094559e+01 8.78077011e+01 2.36720994e-01
      9.09357681e+01</_>
    <_>
      4.80715322e+00 5.13094406e+01 8.79043808e+01 2.36240998e-01
      9.10101929e+01</_>
    <_>
      4.83113384e+00 5.48097725e+01 6.90672226e+01 4.94466007e-01
      4.86018753e+01</_>
    <_>
      4.87694216e+00 5.13113098e+01 1.19810616e+02 3.99154007e-01
      1.19942154e+02</_>
    <_>
      4.85642719e+00 5.13107452e+01 9.10038223e+01 3.22091997e-01
      9.28562546e+01</_>
    <_>
      4.91551685e+00 5.13121300e+01 5.24197426e+01 1.36699796e+00
      5.24020615e+01</_>
    <_>
      4.85036182e+00 5.13105927e+01 1.09339417e+02 3.21907997e-01
      1.09091698e+02</_>
    <_>
      4.87279987e+00 5.13112488e+01 7.56918335e+01 1.54191002e-01
      7.62618866e+01</_>
    <_>
      4.87520885e+00 5.13112106e+01 1.19876663e+02 6.16501987e-01
      1.20945702e+02</_>
    <_>
      4.84821606e+00 5.13105125e+01 5.03771477e+01 3.49750012e-01
      5.04038429e+01</_>
    <_>
      4.85025597e+00 5.13106003e+01 5.03326035e+01 2.69964993e-01
      5.09648857e+01</_>
    <_>
      4.89213800e+00 6.05289574e+01 8.97254639e+01 8.27126026e-01
      8.93978195e+01</_>
    <_>
      4.82943201e+00 5.13100433e+01 1.14297371e+02 2.24213004e-01
      1.15875114e+02</_>
    <_>
      4.89796114e+00 5.13118820e+01 8.89339218e+01 3.97291005e-01
      8.89803391e+01</_>
    <_>
      4.86624622e+00 5.13110390e+01 8.90251923e+01 2.69001007e-01
      8.91592789e+01</_>
    <_>
      4.85901308e+00 5.25011597e+01 1.17468422e+02 9.94369984e-02
      1.21526039e+02</_>
    <_>
      4.86242390e+00 5.13109169e+01 6.06856003e+01 3.42536002e-01
      6.12154503e+01</_>
    <_>
      4.85737419e+00 5.13107796e+01 7.29361725e+01 3.34181011e-01
      7.26826019e+01</_>
    <_>
      4.85618782e+00 5.13107224e+01 1.01820396e+02 3.78325999e-01
      1.03599617e+02</_>
    <_>
      4.85049105e+00 5.13106003e+01 7.99435806e+01 3.53433013e-01
      8.07202377e+01</_>
    <_>
      4.89569807e+00 5.13118134e+01 8.61382217e+01 3.67040992e-01
      8.52561188e+01</_>
    <_>
      4.84428501e+00 5.13104134e+01 1.09313332e+02 3.64293993e-01
      1.09073769e+02</_>
    <_>
      4.86194992e+00 5.13109093e+01 1.01711685e+02 3.01312000e-01
      1.03726601e+02</_>
    <_>
      4.82372808e+00 5.15504189e+01 5.93788109e+01 3.35613012e-01
      3.45097084e+01</_>
    <_>
      4.90646410e+00 5.13121262e+01 6.53626938e+01 5.99577010e-01
      6.54509125e+01</_>
    <_>
      4.83718300e+00 5.13102608e+01 1.09288597e+02 2.14456007e-01
      1.08844368e+02</_>
    <_>
      4.81025791e+00 5.13105431e+01 8.69424438e+01 2.58442014e-01
      9.03627014e+01</_>
    <_>
      4.83272600e+00 5.13101158e+01 1.04584679e+02 2.90491015e-01
      1.03789879e+02</_>
    <_>
      4.88151789e+00 5.13114090e+01 6.53868103e+01 5.10435998e-01
      6.58880234e+01</_>
    <_>
      4.90735102e+00 5.13119240e+01 1.05173607e+02 1.29921997e+00
      1.05167587e+02</_>
    <_>
      4.89085722e+00 5.13117218e+01 6.76420441e+01 2.61106014e-01
      6.72237244e+01</_>
    <_>
      4.83397198e+00 5.13101616e+01 9.35354996e+01 2.67470002e-01
      9.16569595e+01</_>
    <_>
      4.83909607e+00 5.13102951e+01 9.80375748e+01 2.50485986e-01
      9.98294525e+01</_>
    <_>
      4.81620979e+00 5.15191460e+01 8.98657227e+01 2.78798997e-01
      8.95949402e+01</_>
    <_>
      4.89992619e+00 5.13120117e+01 6.60119781e+01 1.42845005e-01
      6.67531662e+01</_>
    <_>
      4.83759117e+00 5.13102264e+01 1.01666443e+02 3.32004011e-01
      1.01850342e+02</_>
    <_>
      4.83440590e+00 5.13101616e+01 1.06071449e+02 3.06042999e-01
      1.04774567e+02</_>
    <_>
      4.83286285e+00 5.13100929e+01 1.12827141e+02 4.56732988e-01
      1.12412987e+02</_>
    <_>
      4.85516500e+00 5.13107224e+01 5.19376373e+01 3.32019001e-01
      5.13877602e+01</_>
    <_>
      4.83444881e+00 5.13186646e+01 8.22456741e+01 4.91407007e-01
      7.68948669e+01</_>
    <_>
      4.90186596e+00 5.13119125e+01 4.61160812e+01 6.57544017e-01
      4.63556442e+01</_>
    <_>
      4.83755016e+00 5.13102570e+01 7.79190826e+01 2.64133006e-01
      7.90556717e+01</_>
    <_>
      4.84594488e+00 5.13104858e+01 7.29015961e+01 2.68855006e-01
      7.25623627e+01</_>
    <_>
      4.83234310e+00 5.13100739e+01 1.12813072e+02 4.58608001e-01
      1.12401482e+02</_>
    <_>
      4.84624100e+00 5.13104630e+01 5.61530075e+01 3.49815995e-01
      5.57763863e+01</_>
    <_>
      4.81113815e+00 5.13095474e+01 1.19481735e+02 2.21421003e-01
      1.18555420e+02</_>
    <_>
      4.83886480e+00 5.13102760e+01 1.12252548e+02 3.54889005e-01
      1.12970825e+02</_>
    <_>
      4.90624380e+00 5.13121262e+01 7.62475662e+01 4.20210987e-01
      7.58923569e+01</_>
    <_>
      4.86579800e+00 5.13110085e+01 8.32330704e+01 3.03972989e-01
      8.22578049e+01</_>
    <_>
      4.81588411e+00 5.13096657e+01 8.58713989e+01 2.51423001e-01
      8.68503952e+01</_>
    <_>
      4.80987120e+00 5.13094940e+01 9.89052505e+01 3.05222005e-01
      9.53228989e+01</_>
    <_>
      4.86685514e+00 5.13110390e+01 1.01424072e+02 3.20939004e-01
      1.01781441e+02</_>
    <_>
      4.82587814e+00 5.13099403e+01 7.68037567e+01 2.40969002e-01
      7.58148575e+01</_>
    <_>
      4.89060783e+00 5.13116722e+01 7.27673645e+01 3.91914010e-01
      7.11889572e+01</_>
    <_>
      4.82930279e+00 5.13100204e+01 9.74857330e+01 2.87766010e-01
      9.09465866e+01</_>
    <_>
      4.85202408e+00 5.13106117e+01 7.29173737e+01 4.01519001e-01
      7.26992035e+01</_>
    <_>
      4.95056200e+00 5.13131905e+01 6.39861908e+01 1.24952900e+00
      6.39588356e+01</_>
    <_>
      4.84742880e+00 5.13105316e+01 9.05575333e+01 2.64039993e-01
      9.11924820e+01</_>
    <_>
      4.90102386e+00 5.13117638e+01 6.13229218e+01 1.25219905e+00
      6.13487816e+01</_>
    <_>
      4.89743996e+00 5.13119240e+01 1.10989189e+02 2.47198999e-01
      1.12564240e+02</_>
    <_>
      4.89218283e+00 5.13118095e+01 4.61269226e+01 1.74444005e-01
      4.72619820e+01</_>
    <_>
      4.82473803e+00 5.13099060e+01 7.42550278e+01 2.53228009e-01
      7.30926819e+01</_>
    <_>
      4.89236307e+00 5.13117485e+01 7.92679596e+01 3.58934999e-01
      7.93237686e+01</_>
    <_>
      4.81103897e+00 5.13095474e+01 1.00103012e+02 2.30507001e-01
      9.94496918e+01</_>
    <_>
      4.89853621e+00 5.13119392e+01 9.90994263e+01 2.26648003e-01
      9.84579010e+01</_>
    <_>
      4.83773279e+00 5.13102455e+01 7.69962692e+01 3.40745986e-01
      7.63513489e+01</_>
    <_>
      4.85092592e+00 5.13106041e+01 6.07521095e+01 3.02587986e-01
      6.14557304e+01</_>
    <_>
      4.86550617e+00 5.13110504e+01 7.24853973e+01 1.23571999e-01
      6.52805252e+01</_>
    <_>
      4.86349916e+00 5.13109093e+01 6.85589523e+01 4.33638006e-01
      6.84887466e+01</_>
    <_>
      4.83157921e+00 5.13100624e+01 7.68799057e+01 3.76408011e-01
      7.62683334e+01</_>
    <_>
      4.85591507e+00 5.13107033e+01 4.48668823e+01 4.22405988e-01
      4.59137077e+01</_>
    <_>
      4.82263803e+00 5.13098526e+01 1.12621452e+02 2.47639000e-01
      1.13710350e+02</_>
    <_>
      4.82571411e+00 5.17193680e+01 6.29305229e+01 3.37819993e-01
      8.53637314e+01</_>
    <_>
      4.81964016e+00 5.15164604e+01 8.11588593e+01 2.27077007e-01
      6.54759827e+01</_>
    <_>
      4.83263397e+00 5.13100891e+01 1.10344002e+02 4.24342990e-01
      1.07169540e+02</_>
    <_>
      4.86775208e+00 5.13110085e+01 9.80643463e+01 5.26324987e-01
      9.16435776e+01</_>
    <_>
      4.83275986e+00 5.13101158e+01 5.74589386e+01 3.05698991e-01
      6.44372253e+01</_>
    <_>
      4.86967897e+00 5.13111534e+01 9.65483017e+01 2.28875995e-01
      9.67120743e+01</_>
    <_>
      4.86809492e+00 5.13110695e+01 9.65501328e+01 3.19855988e-01
      9.66722488e+01</_>
    <_>
      4.85729218e+00 5.13107986e+01 9.65605545e+01 2.43061006e-01
      9.67405624e+01</_>
    <_>
      4.85571098e+00 5.13107376e+01 9.65630417e+01 2.96047002e-01
      9.67134476e+01</_>
    <_>
      4.82948494e+00 5.13100510e+01 8.03266754e+01 2.21208006e-01
      8.18925323e+01</_>
    <_>
      4.83429098e+00 5.13101768e+01 7.70859222e+01 2.39611998e-01
      7.68197937e+01</_>
    <_>
      4.86285210e+00 5.13109093e+01 8.28592148e+01 4.38309014e-01
      8.38226242e+01</_>
    <_>
      4.87850809e+00 5.13113441e+01 1.01521591e+02 4.24937993e-01
      1.02524651e+02</_>
    <_>
      4.86779881e+00 5.13110542e+01 6.49024124e+01 3.79400015e-01
      6.51501007e+01</_>
    <_>
      4.84140110e+00 5.16272926e+01 1.06974457e+02 4.76893991e-01
      1.24763596e+02</_>
    <_>
      4.86503315e+00 5.13109627e+01 7.96243668e+01 4.16702986e-01
      7.97447739e+01</_>
    <_>
      4.86591578e+00 5.13109894e+01 7.97951660e+01 4.84775990e-01
      8.02380829e+01</_>
    <_>
      4.88150978e+00 5.13114586e+01 7.50006943e+01 2.59985000e-01
      7.44215317e+01</_>
    <_>
      4.88496590e+00 5.13116035e+01 5.53585892e+01 2.02308998e-01
      5.40689278e+01</_>
    <_>
      4.88941908e+00 5.13116913e+01 6.72435303e+01 2.15647995e-01
      7.03113098e+01</_>
    <_>
      4.85813904e+00 5.13107834e+01 1.11366669e+02 3.85879993e-01
      1.10753029e+02</_>
    <_>
      4.85282183e+00 5.25009422e+01 5.27632523e+01 1.50150999e-01
      5.08005638e+01</_>
    <_>
      4.82035780e+00 5.13097916e+01 8.67645798e+01 2.44569004e-01
      8.55398636e+01</_>
    <_>
      4.90100718e+00 5.13119850e+01 7.90154343e+01 3.67341995e-01
      7.95002747e+01</_>
    <_>
      4.86459017e+00 5.13109322e+01 1.20630775e+02 5.82482994e-01
      1.20344246e+02</_>
    <_>
      4.83424997e+00 5.13101654e+01 7.31550980e+01 3.38474005e-01
      6.16076279e+01</_>
    <_>
      4.90176821e+00 5.13119469e+01 7.30071487e+01 5.85029006e-01
      7.29086075e+01</_>
    <_>
      4.84728384e+00 5.13105011e+01 8.61369553e+01 3.34508002e-01
      8.69057922e+01</_>
    <_>
      4.85997295e+00 5.13108482e+01 8.90311203e+01 3.09046000e-01
      8.91573486e+01</_>
    <_>
      4.83618784e+00 5.13102188e+01 6.46015930e+01 2.41532996e-01
      6.27335892e+01</_>
    <_>
      4.86137390e+00 5.13109436e+01 9.83565674e+01 1.96654007e-01
      9.98643341e+01</_>
    <_>
      4.82501411e+00 5.13098793e+01 1.11217148e+02 3.72869998e-01
      1.11867210e+02</_>
    <_>
      4.86738014e+00 5.13109818e+01 1.10057869e+02 6.54147983e-01
      1.10738678e+02</_>
    <_>
      4.84902620e+00 5.13105698e+01 9.16427078e+01 2.54846007e-01
      9.15379868e+01</_>
    <_>
      4.84273291e+00 5.43066788e+01 8.43762970e+01 6.12411976e-01
      7.77073135e+01</_>
    <_>
      4.86863613e+00 5.13110657e+01 1.01620079e+02 4.05458987e-01
      1.02928024e+02</_>
    <_>
      4.83694077e+00 5.13102112e+01 7.69807968e+01 3.66447985e-01
      7.63759308e+01</_>
    <_>
      4.87089491e+00 5.13111801e+01 7.96141052e+01 4.01066989e-01
      7.96714859e+01</_>
    <_>
      4.82070780e+00 5.13587074e+01 6.42998734e+01 1.94964007e-01
      9.09777832e+01</_>
    <_>
      4.84347486e+00 5.13103905e+01 7.58355408e+01 3.16693991e-01
      7.76308289e+01</_>
    <_>
      4.83187103e+00 5.13100662e+01 7.70669250e+01 3.62008989e-01
      7.68903732e+01</_>
    <_>
      4.85273314e+00 5.13106804e+01 6.89888840e+01 1.87059999e-01
      4.46367836e+01</_>
    <_>
      4.89090490e+00 5.13116913e+01 1.05162048e+02 4.76411998e-01
      1.05030067e+02</_>
    <_>
      4.85465097e+00 5.13106842e+01 9.65656052e+01 3.63294989e-01
      9.66912918e+01</_>
    <_>
      4.86602402e+00 5.13110046e+01 6.28689499e+01 3.96963000e-01
      6.27964211e+01</_>
    <_>
      4.89021492e+00 5.13116608e+01 8.90116653e+01 4.37537998e-01
      8.90589447e+01</_>
    <_>
      4.84409904e+00 5.16652985e+01 9.79081955e+01 3.35036010e-01
      1.15892166e+02</_>
    <_>
      4.85193586e+00 5.13106422e+01 1.00156395e+02 3.38544011e-01
      9.82415161e+01</_>
    <_>
      4.81113291e+00 5.13095398e+01 9.98631516e+01 2.58938998e-01
      9.55433044e+01</_>
    <_>
      4.83256912e+00 5.13100967e+01 9.34586105e+01 3.37401003e-01
      9.19405060e+01</_>
    <_>
      4.86475801e+00 5.13109627e+01 6.85604630e+01 3.78062993e-01
      6.84833069e+01</_>
    <_>
      4.83064508e+00 5.13100624e+01 7.43966827e+01 2.73573011e-01
      7.33455124e+01</_>
    <_>
      4.86118793e+00 5.13108444e+01 1.19832962e+02 4.12937999e-01
      1.20002602e+02</_>
    <_>
      4.89845610e+00 5.13119316e+01 1.13586182e+02 2.50781000e-01
      1.12763924e+02</_>
    <_>
      4.86936378e+00 5.13110695e+01 4.78855553e+01 4.10382003e-01
      4.91495056e+01</_>
    <_>
      4.88010788e+00 5.13114395e+01 6.37816734e+01 2.21447006e-01
      6.18947906e+01</_>
    <_>
      4.84745979e+00 5.13105125e+01 9.42513275e+01 3.38270992e-01
      9.42283096e+01</_>
    <_>
      4.83108807e+00 5.13100395e+01 8.80181046e+01 3.89171988e-01
      8.43891296e+01</_>
    <_>
      4.83383989e+00 5.13101501e+01 7.78620224e+01 3.12759012e-01
      7.62444305e+01</_>
    <_>
      4.87831020e+00 5.13113785e+01 9.45016556e+01 2.56116003e-01
      9.73809052e+01</_>
    <_>
      4.82727718e+00 5.15504875e+01 6.72574158e+01 4.24650013e-01
      5.35277557e+01</_>
    <_>
      4.82342577e+00 5.13386078e+01 6.62923355e+01 3.21897000e-01
      5.46814041e+01</_>
    <_>
      4.82283115e+00 5.13267479e+01 6.60742111e+01 3.27803999e-01
      5.55889130e+01</_>
    <_>
      4.82531309e+00 5.13099136e+01 7.67836227e+01 2.76221007e-01
      7.59187317e+01</_>
    <_>
      4.85104322e+00 5.13106613e+01 9.47464066e+01 9.95659977e-02
      1.02418015e+02</_>
    <_>
      4.82682085e+00 5.13108749e+01 6.65460892e+01 2.69281000e-01
      4.44777679e+01</_>
    <_>
      4.81412792e+00 5.13096275e+01 6.30353508e+01 2.63072014e-01
      5.49541855e+01</_>
    <_>
      4.87812805e+00 5.13113556e+01 6.80720215e+01 3.32534999e-01
      6.76195908e+01</_>
    <_>
      4.82180691e+00 5.16615372e+01 8.14586105e+01 3.41105998e-01
      7.08626709e+01</_>
    <_>
      4.83390093e+00 5.13101463e+01 1.04601868e+02 2.89974004e-01
      1.03812302e+02</_>
    <_>
      4.83189917e+00 5.13101196e+01 9.88684158e+01 2.08857000e-01
      9.76465836e+01</_>
    <_>
      4.87292385e+00 5.13112488e+01 9.65464630e+01 2.44141996e-01
      9.66954575e+01</_>
    <_>
      4.89163923e+00 5.13118019e+01 1.11340721e+02 5.67790009e-02
      1.09519012e+02</_>
    <_>
      4.81273699e+00 5.14310646e+01 8.59954071e+01 2.99804986e-01
      9.08133926e+01</_>
    <_>
      4.87319517e+00 5.13111839e+01 1.01567535e+02 4.25812006e-01
      1.02692253e+02</_>
    <_>
      4.87808323e+00 5.13113747e+01 9.83301086e+01 2.41669998e-01
      9.73550339e+01</_>
    <_>
      4.85304308e+00 5.13106766e+01 5.03744621e+01 2.76035011e-01
      5.03909607e+01</_>
    <_>
      4.85097313e+00 5.13106422e+01 1.13429115e+02 2.21882001e-01
      1.14937569e+02</_>
    <_>
      4.85617590e+00 5.13107567e+01 1.03369995e+02 3.66567999e-01
      1.02276642e+02</_>
    <_>
      4.85524321e+00 5.40053635e+01 1.04565048e+02 7.32973993e-01
      1.16288429e+02</_>
    <_>
      4.87251902e+00 5.30813141e+01 8.97373505e+01 5.55819988e-01
      8.90140610e+01</_>
    <_>
      4.86544895e+00 5.15204926e+01 8.96389008e+01 4.79250014e-01
      8.85798035e+01</_>
    <_>
      4.85044384e+00 5.13135948e+01 8.93953018e+01 3.02323014e-01
      8.73987198e+01</_>
    <_>
      4.84204578e+00 5.13105812e+01 8.92047577e+01 2.81378001e-01
      8.69284668e+01</_>
    <_>
      4.83023214e+00 5.43477554e+01 8.70011444e+01 4.85491991e-01
      8.24826660e+01</_>
    <_>
      4.85335398e+00 5.13106346e+01 1.12055794e+02 4.88371998e-01
      1.12551453e+02</_>
    <_>
      4.84124804e+00 5.13103600e+01 5.61238823e+01 2.45419994e-01
      5.55156822e+01</_>
    <_>
      4.83364820e+00 5.13101387e+01 7.70813217e+01 2.93900996e-01
      7.68663635e+01</_>
    <_>
      4.82375097e+00 5.13098488e+01 7.92392731e+01 3.94418001e-01
      7.39210129e+01</_>
    <_>
      4.85415792e+00 5.13107567e+01 7.28461227e+01 7.47599974e-02
      7.45570755e+01</_>
    <_>
      4.86045408e+00 5.13108292e+01 7.98424911e+01 4.89877999e-01
      8.03245926e+01</_>
    <_>
      4.83887196e+00 5.13103638e+01 7.42133560e+01 4.52560991e-01
      6.54185867e+01</_>
    <_>
      4.81278276e+00 5.28813248e+01 7.13686447e+01 2.77467996e-01
      4.85997162e+01</_>
    <_>
      4.86589813e+00 5.13110123e+01 6.51944504e+01 3.22508007e-01
      6.54402161e+01</_>
    <_>
      4.86418819e+00 5.13108711e+01 1.03431686e+02 7.15753019e-01
      1.02907158e+02</_>
    <_>
      4.85885620e+00 5.13108139e+01 1.03391129e+02 4.22464997e-01
      1.02459404e+02</_>
    <_>
      4.86048603e+00 5.13108673e+01 1.06485725e+02 3.01302999e-01
      1.06956337e+02</_>
    <_>
      4.84558487e+00 5.13104362e+01 1.03124947e+02 4.24807012e-01
      1.02080078e+02</_>
    <_>
      4.84092379e+00 5.13103333e+01 8.67838821e+01 2.65307993e-01
      8.48877258e+01</_>
    <_>
      4.90701723e+00 5.13120842e+01 5.24180183e+01 8.04861009e-01
      5.23763504e+01</_>
    <_>
      4.84476185e+00 5.13104248e+01 9.42504883e+01 3.62396985e-01
      9.42305450e+01</_>
    <_>
      4.87144709e+00 5.13111534e+01 1.11297218e+02 2.64447987e-01
      1.10703987e+02</_>
    <_>
      4.81494617e+00 5.13096466e+01 9.42293549e+01 1.76032007e-01
      9.41640244e+01</_>
    <_>
      4.83292007e+00 5.13101082e+01 1.15483009e+02 2.89505005e-01
      1.16636833e+02</_>
    <_>
      4.84435987e+00 5.13104019e+01 5.03747902e+01 3.52995008e-01
      5.08758698e+01</_>
    <_>
